<?xml version="1.0"?>
<opencv_storage>
<my_svm type_id="opencv-ml-svm">
  <svm_type>C_SVC</svm_type>
  <kernel><type>LINEAR</type></kernel>
  <C>1.</C>
  <term_criteria><epsilon>2.2204460492503131e-16</epsilon>
    <iterations>100</iterations></term_criteria>
  <var_all>1000</var_all>
  <var_count>1000</var_count>
  <class_count>2</class_count>
  <class_labels type_id="opencv-matrix">
    <rows>1</rows>
    <cols>2</cols>
    <dt>i</dt>
    <data>
      -1 1</data></class_labels>
  <sv_total>1</sv_total>
  <support_vectors>
    <_>
      2.40715174e-03 -5.14034741e-02 1.38080632e-02 6.15183404e-03
      2.25593206e-02 -2.30459627e-02 4.21561906e-03 6.89523900e-03
      3.46084088e-02 1.46941822e-02 -2.33879220e-02 -1.44090384e-01
      8.51839967e-03 1.10085122e-02 2.36973464e-02 1.54370582e-02
      1.07293362e-02 1.40050882e-02 -1.70169342e-02 3.94575298e-03
      1.24040367e-02 1.51580675e-02 1.43527314e-02 3.54744457e-02
      -1.38472449e-02 -3.78893651e-02 -3.58239375e-03 -1.31374244e-02
      -8.21638573e-03 1.68555938e-02 -1.13378624e-02 -3.03666689e-03
      2.83233672e-02 1.00122867e-02 3.47448513e-02 2.56049484e-02
      -9.77132097e-03 -9.12239542e-04 1.44910533e-02 1.65572427e-02
      1.28592132e-02 1.78809557e-02 -5.34133241e-02 2.39714980e-02
      -9.51955914e-02 -8.37539230e-03 8.42481735e-04 3.19369361e-02
      1.32620055e-02 -1.01681324e-02 4.27931035e-03 1.22280624e-02
      -5.84866502e-04 -1.45395240e-02 -2.68061049e-02 1.70330871e-02
      4.84186858e-02 3.87720987e-02 -8.40232968e-02 1.07667865e-02
      3.68889232e-06 -8.54401756e-03 9.01259016e-03 -1.67471580e-02
      -8.57095048e-02 1.57510284e-02 2.47272402e-02 5.74934809e-03
      1.12744905e-02 -5.25438488e-02 4.25771922e-02 -2.45156378e-01
      2.80488022e-02 1.51540665e-02 1.41146092e-03 -7.95964058e-03
      4.93498286e-03 1.77447647e-02 9.45632253e-03 -4.26282408e-03
      -1.34087382e-02 7.97321845e-04 1.34643577e-02 1.11365439e-02
      1.78423841e-02 2.08799969e-02 1.35353655e-01 6.70876168e-03
      3.91596742e-02 2.57309340e-02 3.19603495e-02 1.07749021e-02
      4.79168296e-02 7.75127625e-03 -1.13591198e-02 -1.97026152e-02
      -1.66882444e-02 2.57125106e-02 6.85270317e-03 2.44801808e-02
      -4.66240123e-02 5.14610298e-03 5.06077940e-03 1.50543954e-02
      -6.88070357e-02 -8.05095490e-03 -3.06606665e-02 -1.46049005e-03
      -3.19098006e-03 7.94436969e-03 1.72255151e-02 1.18321497e-02
      -6.96466565e-02 1.39076253e-02 -4.18772213e-02 -2.25094948e-02
      8.49677436e-03 1.55735365e-03 2.28725132e-02 -1.45075703e-02
      -5.74856950e-03 6.49215363e-04 6.75991643e-03 -2.00752373e-04
      4.26392108e-02 1.13730393e-02 1.08141229e-02 3.16245407e-02
      1.78152011e-04 1.84148662e-02 3.11207734e-02 -3.62984277e-02
      9.16475896e-03 1.42363729e-02 -8.97966977e-03 -3.80922593e-02
      2.45126169e-02 -2.39649625e-03 2.30258796e-02 -1.02757700e-02
      -2.06012800e-02 1.78756695e-02 -3.91910784e-02 -1.36938199e-01
      3.31330160e-03 3.46407145e-02 1.35090956e-02 3.98980570e-04
      2.65162135e-03 3.35718924e-03 1.52481422e-02 2.07704362e-02
      1.34317921e-02 2.45770160e-03 1.76405851e-02 2.71684024e-02
      -1.48850260e-02 3.40962969e-02 -3.73071730e-02 3.97939002e-03
      2.09232476e-02 2.99963038e-02 -1.03996936e-02 -2.21053764e-04
      -3.43472138e-02 3.45225073e-02 5.76663576e-03 3.91737930e-02
      6.75289938e-03 -1.45793324e-02 -1.03501268e-02 -1.13229910e-02
      1.46479830e-02 9.22356267e-03 2.69428901e-02 -1.32932402e-02
      -3.60502154e-02 3.73062957e-03 -1.64264031e-02 2.36640358e-03
      1.13766342e-02 -8.66238996e-02 2.93712653e-02 -3.55909392e-02
      -4.35627159e-03 1.44549189e-02 -9.73310973e-03 8.77220090e-03
      2.25629583e-02 2.92207990e-02 9.59640834e-03 1.83129907e-02
      2.38597659e-05 1.77314375e-02 1.79884527e-02 1.10080931e-02
      1.77655779e-02 3.23584005e-02 -6.48964429e-03 1.96379535e-02
      4.22048345e-02 -1.07177906e-02 5.45133166e-02 3.93331088e-02
      -4.92667966e-03 1.92422029e-02 7.41941668e-03 2.80511081e-02
      8.50643869e-03 -1.32451489e-04 3.70942727e-02 -8.39870190e-04
      -5.97451022e-03 2.65899505e-02 1.09160971e-02 1.27255851e-02
      -5.57606183e-02 2.06252132e-02 1.05399471e-02 2.44717691e-02
      -1.34834379e-03 1.36723137e-02 -2.56197639e-02 1.95549540e-02
      2.35615559e-02 -8.11523478e-03 1.11364266e-02 -9.66197178e-02
      1.20659862e-02 1.89271886e-02 -8.73433147e-03 2.53910609e-02
      -4.17267811e-03 3.79505418e-02 -2.34198268e-03 1.02087129e-02
      -1.44060636e-02 -1.38646280e-02 1.67550948e-02 -2.44382042e-02
      5.61709097e-03 2.48993151e-02 1.78489201e-02 1.58875890e-03
      4.46041711e-02 -2.12727091e-03 -1.45805683e-02 -9.07052588e-03
      -1.34492237e-02 7.02778110e-03 9.12384037e-03 3.61243971e-02
      2.46221176e-03 4.01115380e-02 1.41548757e-02 3.06360908e-02
      -2.95685120e-02 1.88442878e-02 -2.92188767e-02 -2.58379616e-02
      -1.73585251e-01 1.23548992e-02 4.85575758e-03 -9.77811813e-02
      4.66099754e-02 9.55540873e-03 8.05152988e-04 2.43756957e-02
      3.57221551e-02 -2.60694697e-02 -2.86285374e-02 2.55531371e-02
      3.79131432e-03 -2.35934067e-03 -1.34434504e-02 1.07455505e-02
      -7.66699389e-02 2.48978436e-02 -3.91249498e-03 6.60952404e-02
      1.32866055e-02 -4.02496522e-03 -5.68346009e-02 3.55007797e-02
      -1.38078118e-02 3.27355857e-03 2.70240172e-03 -1.85212940e-02
      -1.18751302e-02 -9.77660436e-03 1.11359376e-02 2.58159265e-02
      1.65699571e-02 3.58270593e-02 2.17103958e-02 -5.48784574e-03
      7.57444836e-03 2.14884189e-04 3.16489786e-02 3.31180543e-02
      1.00021949e-02 1.21424817e-01 2.84074303e-02 2.62623304e-03
      1.23286685e-02 -2.11250335e-01 -3.31534282e-03 -5.49890613e-03
      9.57418582e-04 1.80656835e-02 -1.70386843e-02 -6.21712096e-02
      -4.00832668e-03 -2.47715507e-03 4.64191921e-02 2.30531320e-02
      -1.79074183e-02 -1.03662357e-01 -1.06145628e-02 1.22206360e-02
      -1.29984897e-02 2.25630514e-02 9.38900653e-03 -5.56825362e-02
      -1.46134580e-02 -7.31725618e-02 -2.20454531e-03 -8.05506296e-03
      2.40079165e-02 1.06604826e-02 5.80540206e-03 -3.30691878e-03
      1.17043704e-02 2.35706624e-02 -1.83810070e-02 1.61093213e-02
      -2.13576406e-02 3.48450057e-02 1.44329499e-02 -1.03573700e-06
      -2.31440589e-02 6.24355744e-04 2.46107504e-02 -1.54849309e-02
      1.10220820e-01 3.11863590e-02 -1.61948390e-02 2.21666717e-03
      -3.74278845e-03 1.39530646e-02 1.73239484e-02 -8.30359664e-03
      -1.37097565e-02 1.94350537e-02 1.51584856e-02 1.26787610e-02
      6.78510591e-03 1.27818696e-02 -2.26409473e-02 2.74313539e-02
      5.83169237e-02 3.28258728e-03 -9.81103033e-02 6.15885388e-03
      -1.35685932e-02 2.94097774e-02 1.54833002e-02 -2.07346249e-02
      6.57995790e-03 4.40343395e-02 2.55919322e-02 1.99140422e-02
      3.92914340e-02 4.19422090e-02 -7.45787397e-02 -4.39321971e-04
      -7.14476779e-03 9.50930919e-03 -1.21352042e-03 3.43833007e-02
      8.65019206e-03 -1.88057780e-01 5.51259797e-03 -8.51026829e-03
      2.32917275e-02 -3.54912579e-02 -6.99790614e-03 2.15543658e-02
      -6.63494284e-04 -1.85011160e-02 2.39468757e-02 5.51497797e-03
      2.51795184e-02 -2.38567684e-02 -3.78162367e-03 -6.57567009e-02
      -2.26701307e-03 3.45369917e-05 1.42172361e-02 -1.70126185e-02
      4.56857495e-02 -4.26895656e-02 1.69517342e-02 1.09041454e-02
      7.62492977e-03 -1.84767563e-02 1.14308437e-02 -8.76748818e-04
      -1.02744326e-01 1.10122161e-02 8.43748450e-03 1.24322571e-01
      3.39020006e-02 2.55476814e-02 1.75234862e-02 1.63890589e-02
      9.03130174e-02 1.39412924e-03 2.45832987e-02 7.95738958e-03
      6.53754771e-02 7.39508355e-03 -4.22321670e-02 1.09758852e-02
      6.05200464e-03 -8.59267339e-02 -3.04959784e-03 -6.05477653e-02
      2.91153193e-02 2.24457122e-02 -2.53465790e-02 5.23776934e-02
      1.42949913e-02 1.18372904e-03 8.51743668e-03 2.12675100e-03
      2.25930586e-02 4.93001193e-03 -6.59043842e-04 -8.23400542e-03
      -9.55532864e-02 -7.65667781e-02 1.22212749e-02 5.92865981e-02
      -2.81340070e-02 -2.07656678e-02 -1.63157936e-02 1.47386016e-02
      1.35738205e-03 2.77675712e-03 -1.62154920e-02 -3.11547462e-02
      2.09620744e-02 -2.29141135e-02 2.13696249e-02 -1.92668866e-02
      -2.74157710e-03 -3.00821383e-03 -2.93703619e-02 -5.92003725e-02
      -1.71143413e-02 1.40341977e-03 1.59281101e-02 4.19532582e-02
      1.97976409e-03 1.03390813e-01 -1.36218462e-02 3.97246378e-03
      -3.63175943e-02 -2.65976153e-02 -1.02010347e-01 1.21464599e-02
      3.35713546e-03 -9.28736664e-03 1.20938784e-02 -3.73057015e-02
      1.30664464e-02 -4.15510032e-04 -2.72241374e-03 9.29876789e-03
      6.54463423e-03 1.38642918e-02 -3.86053557e-03 9.33307596e-03
      1.20416610e-02 -5.58932638e-03 -1.05445192e-03 -8.60102195e-03
      -5.82959279e-02 -1.20632604e-01 2.68794149e-02 1.39087411e-02
      -4.12768796e-02 -1.04405591e-02 -1.38614163e-01 -4.36100597e-03
      3.00124218e-03 -2.37662531e-02 4.03660908e-02 1.28774773e-02
      1.88792776e-02 -3.06648575e-02 -1.15072839e-01 1.93993114e-02
      1.61677971e-02 2.79026967e-03 7.67076854e-03 2.11066082e-02
      4.51236665e-02 -9.70901735e-03 -1.40677067e-02 -9.87942982e-03
      1.13073811e-02 1.66665856e-02 -1.58404280e-02 4.02772753e-03
      8.68120510e-03 -8.40152241e-03 -1.64353922e-02 4.08902252e-03
      1.69100706e-02 1.07232351e-02 -5.54633979e-03 -8.54272395e-02
      1.88347306e-02 -2.44410485e-02 9.00403690e-03 -5.41071035e-02
      -1.50069389e-02 -1.00750186e-01 7.50352489e-03 2.51884013e-02
      -2.58778464e-02 2.96483887e-03 2.06947736e-02 1.09896548e-02
      -2.12365258e-02 -3.68195004e-03 1.77595008e-03 -4.84506134e-03
      -5.23891337e-02 6.62645372e-03 -2.51103733e-02 1.65955443e-02
      1.95514932e-02 1.52157266e-02 4.01539467e-02 -5.43890614e-03
      3.97734623e-03 2.04429775e-02 3.84751670e-02 7.52755720e-03
      9.97902546e-03 2.06520706e-02 1.60220321e-02 1.71713941e-02
      2.96530426e-02 -1.89818498e-02 2.02026758e-02 -2.43746415e-02
      3.59762721e-02 -2.09535230e-02 5.16050728e-03 -2.84709204e-02
      1.62910949e-02 3.92799731e-03 -1.86664794e-04 1.29079977e-02
      -1.80874311e-03 -9.27587971e-03 -6.72651157e-02 3.66834439e-02
      1.74351893e-02 1.31555274e-02 -2.28571277e-02 2.48451959e-02
      -5.20684794e-02 9.00063477e-03 1.39441276e-02 2.56264489e-02
      3.35993394e-02 5.62473154e-03 -5.89785539e-02 2.29073390e-02
      -8.41965200e-04 2.13816222e-02 -2.79746819e-02 -4.82738949e-02
      3.28354947e-02 -3.47457966e-03 1.40206877e-03 3.90784675e-03
      8.08769464e-03 -1.16330748e-02 1.69212744e-02 -8.05936009e-02
      -3.50041911e-02 1.48389814e-02 2.51138713e-02 6.12995541e-03
      3.26764770e-02 -1.16302103e-01 1.32201810e-03 2.37999763e-02
      -1.04927868e-01 9.77036543e-03 -3.10406107e-02 -9.75224227e-02
      2.49930006e-03 2.97861136e-02 1.96604244e-02 -1.44883525e-02
      -5.74294431e-03 2.66406611e-02 1.35292001e-02 1.29426951e-02
      2.43378170e-02 -3.62171768e-03 3.14958207e-02 1.19548989e-02
      1.80393085e-02 -4.44090576e-04 2.13492103e-03 3.64167765e-02
      3.47595923e-02 1.37537383e-02 1.27155585e-02 1.92439854e-02
      3.85649200e-03 1.83375130e-04 -1.12586748e-02 4.77825897e-03
      2.57293787e-02 1.36884470e-02 3.67171355e-02 1.58553533e-02
      6.07043831e-03 9.65060573e-03 2.36133747e-02 -7.71412775e-02
      -6.14626287e-03 -2.72241179e-02 7.00770179e-03 1.80185787e-04
      -9.27892178e-02 -3.60431857e-02 1.98132489e-02 1.43217556e-02
      2.28027813e-02 -6.51919749e-03 2.64982302e-02 1.61685166e-03
      -2.40398515e-02 1.61281079e-02 4.23950097e-03 4.76036184e-02
      3.63327079e-02 -1.99149065e-02 2.25448236e-02 2.95043327e-02
      1.33104492e-02 -1.61481672e-03 2.79339235e-02 1.10481102e-02
      -4.92387377e-02 7.61109078e-03 2.60764454e-02 2.30053067e-02
      1.90516456e-03 1.10584022e-02 3.35468724e-02 -1.09124891e-02
      -6.14346936e-02 4.39873189e-02 3.22781242e-02 -3.52329761e-02
      3.14146988e-02 2.10630242e-02 2.68474650e-02 9.20102652e-03
      2.05031410e-02 9.84311104e-02 7.40014110e-03 1.26413731e-02
      7.81028112e-03 -1.15063740e-02 3.50046381e-02 2.36569066e-03
      2.69431584e-02 -2.77106208e-03 3.99465486e-03 1.02149053e-02
      2.19975342e-03 -9.32814367e-03 -9.61038098e-03 2.03168998e-03
      2.65436582e-02 6.59869285e-03 -7.29625672e-03 2.24582814e-02
      8.59991647e-03 8.85401014e-03 1.43365713e-03 -1.81773547e-02
      1.83343831e-02 2.26629153e-02 -7.23801646e-03 -6.29990734e-03
      -1.47690745e-02 8.30011256e-03 1.97130553e-02 -3.60268950e-02
      3.36085893e-02 1.31036565e-02 5.48586324e-02 -3.63372974e-02
      1.31444586e-02 -1.08805662e-02 7.01013720e-03 -1.01504624e-02
      -3.95063963e-03 1.59938894e-02 -9.27008595e-03 4.33531217e-02
      -9.71740671e-03 8.66605528e-03 -1.45283248e-02 3.15646529e-02
      5.14812907e-03 4.44785552e-03 -6.14078604e-02 3.75606352e-03
      3.44115123e-02 1.49763841e-02 -2.12783813e-02 -1.75925680e-02
      1.29363611e-02 2.01887581e-02 1.71636995e-02 -7.80234262e-02
      -1.02042928e-01 -4.22531851e-02 1.82962772e-02 -5.91808977e-03
      -1.22298941e-01 -3.70544568e-03 1.24634961e-02 -5.06113376e-03
      4.00331384e-03 7.90165924e-03 2.52460241e-02 -1.15898047e-02
      -4.74496223e-02 5.23425220e-03 1.00780954e-03 3.52768507e-03
      1.62642542e-02 4.18009125e-02 1.01089515e-02 8.08769371e-03
      1.00307139e-02 6.50148978e-03 1.12087606e-02 -1.04314741e-02
      1.05675170e-02 -3.95651087e-02 -2.90571954e-02 3.64695266e-02
      2.96907383e-04 1.53443487e-02 -3.24120894e-02 1.70837343e-02
      6.92903250e-03 3.45812030e-02 1.04520293e-02 1.26660680e-02
      8.18280317e-03 -4.45725694e-02 5.37619218e-02 1.56708546e-02
      2.34242827e-02 -1.36700338e-02 3.50152031e-02 -5.59096262e-02
      3.23724654e-03 4.57863808e-02 1.37330070e-02 9.99292638e-03
      -3.82312797e-02 1.26212593e-02 1.12835634e-02 4.08871509e-02
      1.07751489e-02 2.56659221e-02 -1.19130919e-02 -5.18183187e-02
      -8.64316076e-02 8.50893557e-03 -1.28328517e-01 -1.93999172e-03
      1.07446034e-02 4.50402778e-03 7.60585768e-03 3.90894003e-02
      -9.81574506e-03 3.46829891e-02 2.44358256e-02 1.32587887e-02
      -3.61597203e-02 -1.34556647e-02 1.32171726e-02 -1.99881643e-02
      1.92703318e-03 1.31766601e-02 -1.81721579e-02 -4.47491824e-04
      -1.02655031e-03 1.85066555e-02 4.01430987e-02 3.57235707e-02
      -1.07383113e-02 1.34581132e-02 2.36182846e-02 1.81312244e-02
      3.15298550e-02 2.37382464e-02 -6.49818510e-04 1.31132798e-02
      1.73944272e-02 -1.89285632e-03 -5.38533144e-02 -6.09397106e-02
      5.05972188e-03 8.31203070e-03 -1.52446767e-02 -8.80126953e-02
      1.25617497e-02 2.04668054e-03 6.94344402e-04 1.70955472e-02
      1.30716320e-02 2.46769991e-02 -4.31321375e-02 -3.21712047e-02
      1.83650665e-02 2.77656373e-02 1.45661561e-02 3.55987553e-03
      5.01847193e-02 -8.56751204e-03 -3.68613459e-04 3.05078682e-02
      3.29573713e-02 -5.79388067e-02 -6.13658084e-03 1.41846016e-02
      -6.36430755e-02 2.59004626e-03 2.20831688e-02 2.05964614e-02
      3.25845219e-02 1.85251161e-02 -1.59579664e-02 3.16281654e-02
      1.09363934e-02 -1.37402518e-02 -6.92897141e-02 1.05219213e-02
      9.53940768e-03 3.38706411e-02 -2.19949614e-03 6.40390953e-03
      5.21400850e-03 6.90887915e-04 1.08273244e-02 -1.58314463e-02
      -1.33642808e-01 -4.58286107e-02 -2.00880449e-02 -1.57186352e-02
      1.79215316e-02 4.36805971e-02 5.61850704e-03 -9.64450743e-03
      -6.02846555e-02 1.50774941e-02 1.66798476e-03 6.37905439e-03
      1.92411430e-02 -4.86713077e-04 -1.50011573e-02 -1.80711020e-02
      -1.22279460e-02 -2.62473361e-03 2.16469131e-02 4.82896231e-02
      3.39855589e-02 1.03040738e-02 1.42913805e-02 -2.41016403e-01
      -1.90044213e-02 -1.01022452e-01 4.83468594e-03 -7.43508665e-03
      -4.15465236e-03 1.79215521e-02 -1.26565080e-02 1.57951843e-02
      1.65134221e-02 2.49397997e-02 2.06620097e-02 -6.52703550e-03
      -1.00599611e-02 -1.17808543e-01 6.78623542e-02 8.81956483e-04
      2.18569711e-02 1.96623779e-03 2.47686338e-02 1.85293704e-02
      2.25357581e-02 6.67661987e-03 -2.36315075e-02 3.03784572e-02
      1.21909436e-02 8.02719407e-03 2.08847094e-02 1.09772722e-04
      1.28283873e-02 6.29698336e-02 7.02029318e-02 -1.59366667e-01
      1.37809068e-02 2.45316625e-02 1.38715785e-02 1.70097279e-03
      4.87225922e-03 1.32708829e-02 -8.81095827e-02 -2.68244483e-02
      2.39463262e-02 8.14149622e-03 -2.18527943e-01 -6.73644594e-04
      -3.00639331e-01 2.35248636e-02 1.49993813e-02 2.11573998e-03
      -8.72761980e-02 3.87885072e-03 3.26650776e-03 1.21228825e-02
      2.09842250e-02 2.01489571e-02 1.24316046e-03 2.57176869e-02
      -6.83086663e-02 2.44948156e-02 3.49532813e-02 1.76597685e-02
      1.97251067e-02 -2.22719368e-02 -4.29825932e-02 -5.32308919e-03
      -1.06084545e-03 2.46013571e-02 2.70159878e-02 8.10328126e-03
      -5.57797728e-03 1.67257078e-02 2.13823263e-02 3.92535888e-02
      -1.91417653e-02 -1.50731662e-02 1.16438987e-02 -5.38970204e-03
      -2.86776517e-02 2.05094330e-02 6.39387080e-03 2.99046608e-03
      5.75787621e-03 2.67434493e-02 1.56601034e-02 3.95929366e-02
      2.06640139e-02 3.37932780e-02 7.63619021e-02 1.20754521e-02
      1.20886480e-02 1.68046784e-02 -2.59870030e-02 6.34197099e-03
      -7.47080753e-03 1.99523289e-02 -6.76699728e-03 8.02941527e-03
      1.97086018e-02 1.97518114e-02 -5.79764741e-03 -3.61794755e-02</_></support_vectors>
  <decision_functions>
    <_>
      <sv_count>1</sv_count>
      <rho>-9.9577613971466872e-01</rho>
      <alpha>
        1.</alpha>
      <index>
        0</index></_></decision_functions></my_svm>
</opencv_storage>
