<?xml version="1.0"?>
<opencv_storage>
<my_svm type_id="opencv-ml-svm">
  <svm_type>C_SVC</svm_type>
  <kernel><type>LINEAR</type></kernel>
  <C>1.</C>
  <term_criteria><epsilon>2.2204460492503131e-16</epsilon>
    <iterations>100</iterations></term_criteria>
  <var_all>1000</var_all>
  <var_count>1000</var_count>
  <class_count>2</class_count>
  <class_labels type_id="opencv-matrix">
    <rows>1</rows>
    <cols>2</cols>
    <dt>i</dt>
    <data>
      -1 1</data></class_labels>
  <sv_total>1</sv_total>
  <support_vectors>
    <_>
      1.49670243e-02 -5.04700504e-02 1.15593737e-02 -2.06269920e-02
      1.23125184e-02 9.45905689e-03 -1.14709546e-03 1.29218204e-02
      -7.10348859e-02 -1.31189143e-02 -9.71167535e-03 1.42105967e-02
      7.14803021e-03 -1.74158309e-02 -2.19952185e-02 -2.88437493e-02
      4.20728400e-02 -1.13796694e-02 -3.32687199e-02 -2.47036908e-02
      1.20957764e-02 6.76409760e-03 8.30491260e-02 3.15529630e-02
      1.44741740e-02 1.74254403e-02 1.27141941e-02 2.08779369e-02
      -3.78519623e-03 -4.44666147e-02 1.30804600e-02 2.56076213e-02
      -8.03001318e-03 9.73356981e-03 -4.79725525e-02 -1.06653543e-02
      2.03616102e-03 5.56374434e-03 2.08477899e-02 -1.21257594e-02
      -1.20069934e-02 5.76293701e-03 1.19436039e-02 -1.17694158e-02
      5.19281393e-03 2.36894470e-03 1.19010154e-02 2.11349037e-02
      2.13933606e-02 2.87117995e-03 -7.15279626e-03 -6.17009448e-03
      2.87844930e-02 1.68968104e-02 3.11595518e-02 2.41246372e-02
      7.02957064e-02 -1.70594767e-01 1.22534744e-02 -4.25643027e-02
      -2.08928250e-03 1.06651569e-02 -5.59138618e-02 4.14043851e-02
      -5.25832875e-03 -3.29487734e-02 2.21036803e-02 1.68174654e-02
      -2.40644868e-02 5.87943569e-03 1.28484759e-02 1.09620849e-02
      8.04690551e-03 -2.36465670e-02 1.31078325e-02 1.66746636e-03
      1.60287209e-02 1.77292470e-02 -7.92727433e-03 1.97662897e-02
      4.27877940e-02 -3.38430777e-02 1.32832779e-02 1.81114264e-02
      -2.81642489e-02 -8.94743800e-02 5.23739420e-02 -2.40813079e-03
      -2.68666539e-02 -2.45420262e-02 -3.07279872e-03 -3.17879505e-02
      4.97545954e-03 -5.08010127e-02 5.63086802e-03 -6.55326471e-02
      1.18807796e-02 1.88778974e-02 -2.46228999e-03 2.39716861e-02
      6.10166090e-03 -3.58024351e-02 2.96933670e-02 -1.73062533e-02
      1.18311225e-02 4.15857583e-02 7.77819566e-03 8.64316244e-03
      9.59782768e-03 1.46123236e-02 -2.87016276e-02 -9.34284367e-03
      1.98395364e-02 2.81830113e-02 2.06926502e-02 2.15390371e-03
      2.60423007e-03 4.25050687e-03 8.16910807e-03 3.09888925e-02
      7.54230935e-03 2.22979132e-02 -4.57243063e-03 2.27081608e-02
      -3.47911641e-02 -1.24870874e-02 -7.55305495e-03 -2.20333468e-02
      3.42790708e-02 -3.29723470e-02 -9.16674361e-03 9.80626442e-04
      -3.90285365e-02 2.92363651e-02 -1.69008505e-02 -2.49764454e-02
      -8.12351890e-03 -2.21945830e-02 -4.27880995e-02 -6.66146204e-02
      2.00368278e-02 1.71888992e-02 2.64903791e-02 2.76397895e-02
      -1.12503599e-02 -6.65374249e-02 -9.85609740e-03 -6.64902180e-02
      -8.97170976e-03 -6.37133839e-03 -2.61347424e-02 -1.64675768e-02
      -1.24273198e-02 -5.16690779e-03 2.21529789e-02 2.58169919e-02
      1.12603782e-02 2.34435815e-02 -2.65376270e-02 3.71487869e-04
      3.75464954e-03 -4.20799293e-02 1.36075411e-02 2.35534888e-02
      3.48733403e-02 -7.80173391e-02 -4.66452853e-04 2.82541122e-02
      -3.27782221e-02 3.27340979e-03 3.31310066e-03 8.98582768e-03
      1.24866003e-02 -4.90147136e-02 -5.40507659e-02 5.66218831e-02
      2.38295901e-03 5.90374544e-02 1.59740187e-02 2.01354865e-02
      -3.17186490e-02 1.30152153e-02 -2.20592413e-02 1.43243158e-02
      9.55463387e-03 2.44405051e-03 1.59277022e-02 -5.06922416e-03
      -2.49498859e-02 -5.49128512e-03 8.69449787e-03 3.70626859e-02
      -1.47884106e-02 -2.57093995e-03 1.02660432e-02 2.76227221e-02
      3.10980831e-03 2.98296139e-02 -7.09816348e-03 -4.50495183e-02
      3.62920319e-03 1.99621990e-02 -4.49262885e-03 4.24444035e-04
      8.85763206e-03 4.65015322e-03 -1.22025851e-02 3.13901454e-02
      3.02094482e-02 9.84520279e-03 9.41457134e-03 2.37894972e-04
      1.25957783e-02 5.37057258e-02 -6.10204786e-03 2.12818012e-02
      2.28224415e-02 -4.04173397e-02 8.15862976e-03 -1.99200269e-02
      -1.63755324e-02 -1.75628774e-02 -1.91458443e-03 6.21307828e-03
      2.00749915e-02 -7.75080174e-03 -1.04844868e-02 3.96063291e-02
      -3.62924002e-02 -9.55424979e-02 -2.22490598e-02 -3.45550925e-02
      2.20840070e-02 -3.86076197e-02 3.43556143e-02 1.73774585e-02
      -5.43469843e-03 -3.73908412e-03 -5.60148852e-03 -4.19506766e-02
      -2.05227155e-02 1.65106859e-02 -2.45174882e-03 1.20215015e-02
      2.67278496e-02 8.34469683e-03 3.08687240e-02 -4.63111699e-03
      2.11853031e-02 1.18663919e-03 2.22676042e-02 -3.11501939e-02
      1.30676720e-02 -1.17697686e-01 -6.37853425e-03 -2.66321516e-03
      6.91448245e-03 8.36077705e-03 9.44924634e-03 2.75820568e-02
      1.48885222e-02 -4.40591797e-02 -7.67256832e-03 6.16139313e-03
      4.90087643e-02 3.94179393e-03 -1.03897452e-01 6.85608061e-03
      1.78068336e-02 -2.99848914e-02 6.69972273e-03 -1.44814000e-01
      -1.50051126e-02 -6.98648719e-03 2.44475435e-02 2.03687213e-02
      7.15411676e-04 -2.08703652e-02 1.25750257e-02 -2.78166886e-02
      1.25381676e-02 1.54521578e-04 1.51240118e-02 3.09439050e-03
      -1.10116303e-02 -1.63944066e-02 1.22144213e-02 -5.40916482e-03
      -3.41227092e-03 -1.84299052e-02 5.38209602e-02 1.59342643e-02
      -6.54526502e-02 7.92438686e-02 7.46005215e-03 6.71454296e-02
      -1.53331747e-02 -1.33901276e-02 -3.94188762e-02 1.25876535e-02
      2.72499993e-02 1.49879852e-04 -1.82447862e-02 -3.93830473e-03
      -1.77405876e-04 1.33525385e-02 1.49850752e-02 4.22847904e-02
      -4.23432793e-03 -2.89865602e-02 9.40289814e-03 -2.64827395e-06
      1.90461129e-02 3.22820917e-02 -2.20144470e-03 3.07744350e-02
      -2.41960157e-02 -4.69752122e-03 -2.81084478e-02 1.74053740e-02
      1.48597441e-03 -5.01939319e-02 7.89905898e-03 1.96285900e-02
      2.54304390e-02 1.05488477e-02 1.17895631e-02 1.13893021e-02
      -8.37837625e-03 2.96959747e-02 -1.87004116e-04 2.51391754e-02
      -5.09921461e-02 -2.35528927e-02 6.65558726e-02 -5.79602979e-02
      6.37305016e-03 1.57699082e-02 2.55572442e-02 4.72478598e-04
      -9.19147115e-03 6.10187696e-03 -1.70415640e-02 3.45072225e-02
      4.83585037e-02 -7.29355868e-03 -8.46663548e-04 -3.40046547e-02
      -4.90071427e-04 1.50447441e-02 -9.99359600e-03 -1.68715119e-02
      -1.15358958e-03 -3.04807089e-02 -2.39815051e-03 -6.33207243e-03
      -5.37914399e-04 1.81876086e-02 8.31834506e-04 5.99566568e-03
      1.90021060e-02 3.17983888e-02 2.76704635e-02 2.69255601e-02
      7.56799302e-04 1.03400620e-02 5.17510949e-03 9.87481605e-03
      5.91307506e-03 3.00823171e-02 -7.41320895e-03 -4.36643995e-02
      6.49634153e-02 5.87660819e-02 2.67583188e-02 2.13927049e-02
      1.12692928e-02 1.47699155e-02 7.82179274e-03 -1.95547403e-03
      -1.79126728e-02 8.32859613e-03 -1.21309862e-01 1.43103264e-02
      -1.19826319e-02 2.05926374e-02 2.77010910e-03 2.12737266e-02
      -6.28154492e-03 -1.92558561e-02 -1.57735534e-02 2.33324412e-02
      -2.14321353e-03 8.50707199e-03 1.43190706e-02 3.71868797e-02
      3.09496075e-02 4.92723146e-03 -5.26134707e-02 -1.79582927e-02
      4.28104140e-02 -6.72000796e-02 -7.56227295e-04 -2.75042909e-03
      -3.81345376e-02 3.67155706e-04 1.48340072e-02 9.07054450e-03
      4.01251949e-02 1.77187119e-02 9.96585097e-03 6.52193725e-02
      2.03880426e-02 -1.18450031e-01 -1.38466097e-02 5.52972034e-03
      -2.36897215e-01 -1.76589936e-03 -1.91297643e-02 -1.42222317e-02
      6.10255152e-02 3.60473688e-03 3.60272750e-02 1.84929967e-02
      -1.27051864e-02 -2.06680829e-03 -3.34522650e-02 3.37363295e-02
      -4.76576425e-02 -4.00219820e-02 -1.25004090e-02 2.67684069e-02
      -2.36199796e-02 -2.41452642e-03 -1.59527063e-02 -2.47986428e-03
      -1.07336506e-01 8.70499015e-03 1.96396690e-02 1.27955871e-02
      1.48037868e-02 1.24120936e-02 3.15661989e-02 6.65726606e-03
      2.82186903e-02 2.09017508e-02 3.64061520e-02 8.04213528e-03
      2.02267175e-03 -4.68162224e-02 1.80403143e-02 -4.39541265e-02
      7.90745299e-03 2.34063677e-02 2.62730420e-02 8.34869873e-03
      -3.34789534e-03 1.72198974e-02 5.18103037e-03 1.91265736e-02
      -1.67112378e-03 -7.03438148e-02 -2.39654095e-03 1.38068944e-02
      3.67813371e-02 3.85049060e-02 1.78384930e-02 -3.57808806e-02
      2.55947281e-02 -1.87090579e-02 6.90931501e-03 -5.19749662e-03
      -8.37353058e-03 -8.73460062e-03 -4.22801040e-02 3.78850438e-02
      -6.27858005e-03 3.09351720e-02 -2.03240570e-02 -2.24358775e-02
      9.75511316e-03 -2.40055355e-03 1.86130852e-02 -1.37980849e-01
      -7.13255536e-03 8.05915240e-03 -1.18898414e-03 -2.10556630e-02
      -4.66327369e-03 1.87100004e-02 2.32768115e-02 -4.68609072e-02
      5.67662483e-03 8.04143399e-03 7.68311089e-03 1.88924503e-02
      -2.31628232e-02 5.36605762e-03 2.35367348e-04 1.66383069e-02
      1.36597501e-02 1.08062150e-02 1.45892967e-02 5.86083578e-03
      -5.11259623e-02 -3.89438518e-03 -2.31713392e-02 1.12500293e-02
      -3.07983216e-02 1.69637911e-02 -6.57856523e-04 1.56410262e-02
      -1.18684461e-02 1.74978655e-02 -8.12681578e-03 -2.75039431e-02
      1.92550607e-02 6.00490114e-03 1.53047347e-03 -1.60932802e-02
      -2.07746625e-02 -1.50614651e-02 2.28288602e-02 6.51419535e-03
      1.97371040e-02 -3.25996727e-02 2.09920481e-02 4.98976931e-03
      1.20697888e-02 2.15010270e-02 5.99264354e-03 3.83976810e-02
      1.14312861e-03 -3.22723724e-02 -1.70286447e-02 2.43411288e-02
      1.53263183e-02 -5.66644557e-02 1.86752746e-04 -1.67441852e-02
      3.81732546e-02 -1.85248107e-02 6.45736046e-03 -1.90953799e-02
      -6.86415145e-03 -4.03329395e-02 -2.29391716e-02 5.74737117e-02
      -2.28834879e-02 -2.80668493e-02 1.96938086e-02 1.36053972e-02
      2.59607416e-02 1.89832617e-02 3.84068117e-03 -3.68052348e-02
      3.22585441e-02 1.26086548e-02 1.14477668e-02 4.17570174e-02
      1.58355366e-02 1.42743336e-02 -2.36940035e-03 1.43508073e-02
      -1.39474422e-02 1.54390614e-02 -3.06603219e-02 1.35887442e-02
      1.92009583e-02 1.68112256e-02 3.60832550e-02 -3.93207446e-02
      2.51387898e-02 -2.14908123e-02 2.28909981e-02 -4.83429385e-03
      -1.05378795e-02 -1.18908864e-02 -1.33032510e-02 -8.57342221e-03
      2.96915658e-02 9.67155676e-03 3.91807295e-02 -2.60972958e-02
      6.05047308e-03 -3.43309976e-02 1.07436571e-02 2.72827502e-02
      -1.41797436e-03 -5.77059016e-03 -6.83811158e-02 1.29695144e-02
      -6.06331415e-03 1.36695933e-02 -1.83949694e-02 1.78116541e-02
      1.65635021e-03 1.41363486e-03 -3.34817171e-02 -3.37279285e-03
      -2.79966462e-02 5.22926934e-02 5.53140766e-04 -2.49552522e-02
      2.54003201e-02 -4.13322169e-03 4.81860377e-02 1.12866820e-03
      -6.04177965e-03 2.88695246e-02 1.12057738e-02 2.30408609e-02
      2.18143556e-02 3.95815335e-02 -1.14754299e-02 -1.58772709e-05
      -1.27216161e-03 -4.35108923e-05 -1.67827196e-02 6.17191149e-03
      -1.85569804e-02 2.42051086e-03 6.05572294e-03 2.65701003e-02
      2.19686776e-02 -3.47104669e-02 1.06562767e-02 3.77046168e-02
      -6.52991643e-04 -3.49554867e-02 -4.88332426e-03 1.95490811e-02
      1.93744544e-02 -8.66274349e-03 2.28597187e-02 1.11844353e-02
      -3.34082375e-04 7.84055982e-03 3.82996653e-03 6.13042489e-02
      2.43270285e-02 -7.39017874e-02 -1.13664446e-02 3.19031999e-03
      3.31193991e-02 1.34799872e-02 4.16835956e-02 -1.87806953e-02
      2.10980885e-03 2.77519040e-02 1.57104600e-02 2.91441655e-04
      -3.14184763e-02 3.27963661e-03 -4.55068164e-02 1.01234959e-02
      -2.86827944e-02 1.20253265e-02 2.01378595e-02 -4.08631563e-03
      -7.31129013e-03 2.17175274e-03 1.47679271e-02 -4.46687266e-02
      8.44236687e-02 3.51987816e-02 1.35561507e-02 -7.59135140e-03
      1.50382966e-02 -2.07050005e-03 -3.88853177e-02 4.14393516e-03
      1.92858942e-03 4.73653339e-02 -1.48294226e-03 1.80036053e-02
      -7.63392635e-03 -6.00225152e-03 -1.53929874e-01 -1.85082108e-02
      5.09186499e-02 -2.44393334e-01 8.88929178e-04 3.47585278e-03
      2.51415092e-02 3.00382804e-02 -3.49175595e-02 -3.69876507e-03
      -2.13849053e-04 -2.74995565e-02 -1.29400904e-03 -1.81575436e-02
      -1.12366881e-02 1.71670560e-02 6.37834845e-03 7.39343278e-03
      -4.94056800e-03 3.82672762e-04 -3.78215685e-03 3.50892469e-02
      4.28963490e-02 -4.57922462e-03 3.30359093e-03 1.77911483e-02
      1.67291760e-02 3.37442160e-02 3.87357967e-03 3.69660836e-03
      7.54070515e-03 1.65349096e-02 2.90263947e-02 4.97678593e-02
      6.38165139e-03 4.39189933e-02 -2.38518305e-02 -2.21719407e-02
      6.08814997e-04 8.44146498e-03 1.18835820e-02 -1.91687793e-02
      5.09285070e-02 1.90003053e-03 1.78114548e-02 3.41697447e-02
      -1.98463537e-02 2.70715300e-02 2.29579043e-02 1.89472809e-02
      -1.72644816e-02 4.55553224e-03 3.32623236e-02 -4.05889796e-03
      7.69826397e-03 6.49601396e-04 5.11550897e-05 3.87143753e-02
      -9.95217264e-02 -8.73595197e-03 2.36230670e-03 5.71907358e-03
      -1.52081428e-02 2.99616018e-03 -1.75797176e-02 2.89786942e-02
      4.13279310e-02 -3.16477101e-03 1.61889065e-02 -7.88376033e-02
      9.98085085e-03 2.42852084e-02 1.48156714e-02 6.31891098e-03
      5.33757694e-02 1.58757288e-02 -1.38740065e-02 -1.73644088e-02
      6.55121822e-03 -9.47943777e-02 -2.34365240e-02 -6.84788078e-03
      8.56881961e-03 1.07525326e-02 4.31242026e-02 -1.10234972e-02
      1.13005424e-02 1.80768427e-02 3.80865522e-02 -1.18445367e-01
      2.70004151e-03 2.09030397e-02 -3.44763063e-02 3.06074992e-02
      2.50512864e-02 -5.75754698e-03 8.56442712e-05 1.37189534e-02
      2.37527825e-02 1.14547014e-02 9.23574716e-03 3.09224650e-02
      -1.38519639e-02 1.14467731e-02 1.07107963e-02 9.27950069e-03
      3.28931734e-02 3.78737338e-02 6.17462816e-03 1.31969433e-02
      -2.21603531e-02 -2.56944774e-03 -4.18413840e-02 -9.75177884e-02
      -3.90770426e-03 3.17515153e-03 -8.30712840e-02 2.30588093e-02
      3.18383868e-03 5.56864105e-02 -3.10798234e-04 -8.44765827e-03
      -2.13320777e-02 1.49749853e-02 6.55643875e-03 -1.04204575e-02
      1.25412699e-02 -6.15978474e-03 8.72012042e-03 -1.33160383e-01
      2.12610289e-02 -1.30377524e-02 -2.63694744e-03 2.17518955e-03
      -3.52525078e-02 -8.91955942e-03 1.54640544e-02 1.20449485e-02
      2.67796256e-02 -4.52145236e-03 -2.30360478e-02 -1.24135194e-02
      -3.47985253e-02 -1.90216042e-02 -2.83260979e-02 2.75665652e-02
      1.41031819e-03 2.23410651e-02 -3.51562491e-03 -2.54587941e-02
      -1.23963533e-02 3.47869471e-02 2.20010914e-02 1.66871939e-02
      -1.15460642e-02 -1.29735505e-04 1.26452362e-02 1.73619352e-02
      -3.95669229e-03 9.30462871e-03 1.75141264e-02 2.81021819e-02
      1.41041921e-02 3.67980488e-02 -1.89808141e-02 1.39434717e-03
      9.90306772e-03 2.08473988e-02 5.34688961e-03 1.41070168e-02
      -5.12976944e-02 -1.81038235e-03 1.05843311e-02 2.99158674e-02
      1.81368031e-02 1.98604669e-02 -3.52463163e-02 -1.73583720e-02
      -2.97948960e-02 1.26730856e-02 2.98689641e-02 -1.31672074e-03
      -2.37207562e-02 -1.57862576e-03 3.10846791e-03 4.65316400e-02
      3.37699167e-02 -4.70959768e-02 1.11459391e-02 5.94464783e-03
      7.30760954e-03 1.41349155e-02 5.21165924e-03 -2.57999152e-02
      8.27998156e-04 5.68159623e-03 1.86254736e-02 -6.87183207e-03
      2.62937993e-02 -6.11969568e-02 4.59795212e-03 2.00033793e-03
      5.22202672e-03 2.01355945e-02 1.04082003e-02 8.57824180e-03
      4.21295427e-02 3.75120416e-02 1.34682367e-02 -1.22977309e-02
      -3.23729254e-02 -1.44254435e-02 -3.57908532e-02 1.20824454e-02
      8.65252595e-03 -1.17118945e-02 2.04303805e-02 -1.38182074e-01
      -4.58704457e-02 -3.79137434e-02 5.25601096e-02 1.42077086e-02
      -3.47419232e-02 1.09991664e-02 2.76172254e-02 -3.24684866e-02
      2.67067868e-02 -2.04960480e-02 -6.31723227e-03 1.68401860e-02
      -1.33870114e-02 8.47205240e-03 1.47131849e-02 -4.49160440e-03
      1.11455480e-02 1.71637032e-02 1.34223113e-02 2.47179382e-02
      -6.53492808e-02 -1.65117700e-02 -8.96696374e-03 -7.77747408e-02
      -5.40134823e-03 -1.56857527e-03 -1.59119244e-03 -5.38587803e-03
      -1.43611971e-02 1.35105839e-02 1.32938838e-02 1.57373771e-02
      2.26158258e-02 1.25437016e-02 -1.69038460e-01 1.32119004e-02
      -9.69228800e-03 -6.24658819e-03 4.40036366e-03 1.17618134e-02
      -3.57101634e-02 -1.79421082e-01 1.65388212e-02 -1.47727141e-02
      2.56303195e-02 4.57067927e-03 -9.56986332e-04 2.32468843e-02
      1.86651144e-02 3.97879817e-02 4.64127883e-02 2.27634106e-02
      1.63622815e-02 2.52036862e-02 -1.64895821e-02 -2.03419980e-02
      -4.01495546e-02 -1.15070408e-02 3.30943801e-02 6.25393726e-03
      3.40289287e-02 -1.76263694e-02 2.87777651e-02 1.05274869e-02
      1.88748259e-03 5.23023047e-02 1.48702394e-02 8.30659550e-03
      -1.96245592e-02 -4.72009182e-03 1.86767783e-02 2.11658385e-02
      6.34287717e-04 -7.03475848e-02 1.03191370e-02 -2.64097881e-02
      3.29818316e-02 2.27861386e-02 1.63046829e-02 6.55676574e-02
      -2.54858118e-02 8.83969814e-02 -1.40719088e-02 -3.04893199e-02
      -1.93901628e-03 -3.05003170e-02 8.09238013e-03 -3.42013314e-02
      4.44019167e-03 9.80760064e-03 -8.05559978e-02 2.22614761e-02
      1.58453416e-02 1.90225467e-02 3.12206242e-03 -1.74458865e-02
      1.42668644e-02 1.51569396e-02 -2.62161940e-02 1.56210028e-02
      -1.91163681e-02 5.73246591e-02 -2.48814244e-02 4.52667521e-03</_></support_vectors>
  <decision_functions>
    <_>
      <sv_count>1</sv_count>
      <rho>-9.9761900278090698e-01</rho>
      <alpha>
        1.</alpha>
      <index>
        0</index></_></decision_functions></my_svm>
</opencv_storage>
