<?xml version="1.0"?>
<opencv_storage>
<my_svm type_id="opencv-ml-svm">
  <svm_type>C_SVC</svm_type>
  <kernel><type>LINEAR</type></kernel>
  <C>1.</C>
  <term_criteria><epsilon>2.2204460492503131e-16</epsilon>
    <iterations>100</iterations></term_criteria>
  <var_all>1000</var_all>
  <var_count>1000</var_count>
  <class_count>2</class_count>
  <class_labels type_id="opencv-matrix">
    <rows>1</rows>
    <cols>2</cols>
    <dt>i</dt>
    <data>
      -1 1</data></class_labels>
  <sv_total>1</sv_total>
  <support_vectors>
    <_>
      -4.56466712e-03 1.94918867e-02 -3.16881202e-02 -4.83520180e-02
      -2.81555187e-02 2.06411071e-02 5.93068870e-03 2.66333707e-02
      5.48802316e-02 -1.92660969e-02 -2.25917585e-02 -6.44875458e-03
      -2.92568039e-02 -5.42918732e-03 -2.19309703e-02 3.19728926e-02
      6.64109690e-03 2.10878509e-03 -2.98318937e-02 2.19092816e-02
      1.35766957e-02 -3.25559378e-02 1.09291971e-02 -1.20601403e-02
      -5.43015450e-02 -8.17818381e-03 1.00453142e-02 4.43567242e-03
      7.91388971e-04 1.69298127e-02 1.71584655e-02 -2.58146320e-02
      2.27784961e-02 -3.55108939e-02 4.15442251e-02 1.97342280e-02
      -1.21417372e-02 1.67380348e-02 1.50483698e-02 7.76640372e-03
      1.25932666e-02 1.59294978e-02 -1.28174080e-02 -1.74898058e-02
      3.33225429e-02 1.75890196e-02 -6.41542766e-03 2.39123683e-02
      2.27243397e-02 -9.64687113e-03 1.32988133e-02 5.78976469e-03
      -1.09865023e-02 2.70918175e-03 -1.41568705e-02 9.51494789e-04
      -7.13053346e-02 3.90885994e-02 -2.90926285e-02 6.13052212e-02
      -2.52565425e-02 2.17043292e-02 4.82479157e-03 -2.50674412e-02
      7.83530902e-03 1.11998264e-02 -6.33941516e-02 8.45874939e-03
      2.65215691e-02 1.28675522e-02 -9.40623786e-03 2.91876905e-02
      1.02279363e-02 2.68557854e-03 -1.88032538e-02 -7.98115693e-03
      -3.72657627e-02 -3.26202181e-03 -1.37966983e-02 -6.20770939e-02
      2.95294840e-02 9.40535218e-03 -4.40976284e-02 -1.50654167e-02
      -2.36650929e-02 2.33271122e-02 -1.60722695e-02 1.48629071e-02
      -3.36777456e-02 -6.89984486e-03 -2.60127410e-02 -5.09025715e-03
      -2.76550688e-02 4.45203148e-02 -1.32089043e-02 2.50966232e-02
      -1.53963147e-02 1.94398209e-03 3.20390658e-03 -4.81183678e-02
      2.80319881e-02 -6.12315664e-04 -3.88782509e-02 -3.13371583e-03
      1.70166437e-02 -2.40570698e-02 -2.58863647e-03 6.56068558e-03
      6.28044317e-03 -1.57140307e-02 2.57669501e-02 3.37552582e-03
      1.34231178e-02 8.17431323e-03 1.78610049e-02 3.55505496e-02
      1.80518311e-02 -8.41429923e-03 1.88910179e-02 -4.55562584e-02
      -2.43080384e-03 5.13256248e-03 3.39256553e-03 4.27358178e-03
      -2.92557850e-03 1.80081592e-03 -8.69209226e-03 -2.12243348e-02
      -1.56776868e-02 1.77501570e-02 -1.41676813e-02 1.96569562e-02
      -2.09518964e-03 -4.08188514e-02 8.20131041e-03 1.00428946e-02
      -8.74442689e-04 3.27320979e-03 -9.98888258e-03 3.97922508e-02
      1.58747993e-02 2.76189204e-02 5.07417917e-02 6.67877272e-02
      8.37273488e-04 2.77333669e-02 1.41113380e-03 2.84005720e-02
      1.03336247e-03 1.02854641e-02 1.14144024e-03 -5.47811948e-03
      -2.11323909e-02 3.03858775e-04 9.20024328e-03 -3.96459177e-02
      3.18158306e-02 -2.44701095e-03 3.46763618e-02 5.72862383e-03
      7.02533755e-04 8.24015029e-03 -2.95839198e-02 1.18403872e-02
      -3.84833571e-03 4.12021726e-02 2.16477718e-02 -6.22921214e-02
      9.49900039e-03 1.08463094e-02 -7.50180148e-03 -1.08543625e-02
      -1.99333928e-03 1.76929310e-02 -1.39490133e-02 3.03265937e-02
      -1.00924913e-02 3.37780826e-03 4.71474305e-02 -2.23497171e-02
      -2.10697902e-03 7.67779863e-03 4.56818491e-02 -2.05028709e-03
      -1.99920908e-02 -4.01534624e-02 1.00250065e-03 1.63959451e-02
      -1.60769112e-02 2.89549194e-02 1.17078414e-02 -3.93526852e-02
      -3.28774378e-03 -8.62469058e-03 1.78036070e-03 3.02008968e-02
      -2.74756905e-02 1.77074540e-02 -1.21312989e-02 1.52526069e-02
      -2.91014407e-02 2.23262794e-02 9.28818714e-03 -9.00495425e-03
      4.01094032e-04 1.12434924e-02 -4.96362336e-03 -6.47552907e-02
      2.38908194e-02 2.61673275e-02 -1.22512072e-01 -9.44903400e-03
      -9.20201186e-03 5.41064935e-03 1.24914376e-02 -7.05787027e-03
      4.52543423e-02 2.94475030e-04 -3.77796195e-03 4.01340378e-03
      1.99728981e-02 4.10644934e-02 7.22007314e-03 -2.50674412e-03
      -1.93652622e-02 9.52201802e-03 -2.01109163e-02 -2.83776177e-03
      2.31402088e-03 1.52040413e-02 -2.85866037e-02 -2.79440405e-03
      -1.08705172e-02 8.68358091e-03 3.04269437e-02 1.18733300e-02
      2.34189332e-02 -2.37752162e-02 2.12668236e-02 3.42664681e-02
      1.61599973e-03 -3.84553969e-02 -1.80139150e-02 -1.23930546e-02
      1.37138478e-02 4.64838818e-02 -2.78477930e-02 5.72682172e-03
      -1.02380551e-02 -3.05529609e-02 -1.01904437e-01 5.45152836e-02
      -1.90999191e-02 4.94358428e-02 4.22537513e-03 1.56697109e-02
      6.01857435e-03 -5.12529910e-02 -2.49948297e-02 -4.61900327e-03
      1.19807487e-02 1.13166189e-02 -8.58608354e-03 5.09951301e-02
      -9.71725136e-02 -1.32102985e-02 2.32992414e-02 -1.24753977e-03
      -5.18707074e-02 3.34763750e-02 1.07162036e-02 3.15408036e-02
      -6.45051152e-02 1.02882180e-02 2.23714975e-03 -7.03656822e-02
      2.46945731e-02 -5.74686611e-03 -1.63169485e-02 -3.07149962e-02
      -3.54956798e-02 -2.37162597e-02 -4.72096121e-03 2.87459046e-02
      1.96766779e-02 -1.46722505e-02 2.07385793e-02 2.04963479e-02
      6.30948087e-03 4.19945344e-02 2.84427982e-02 2.32908409e-02
      1.95988305e-02 -1.32447064e-01 4.85118665e-03 -1.10728450e-01
      -1.35423606e-02 8.07977002e-03 1.69167463e-02 -3.63927160e-04
      1.72618888e-02 -6.28319308e-02 -9.41449963e-03 -1.43139856e-03
      2.44306233e-02 5.97408079e-02 3.37704853e-03 -4.22208086e-02
      -8.77740618e-04 1.83541607e-02 8.00001808e-03 -2.96060042e-03
      3.10134739e-02 -5.18111736e-02 -2.53771320e-02 1.27901603e-02
      -1.31726256e-02 3.31827030e-02 1.93864275e-02 1.21521708e-02
      1.86500289e-02 4.01725397e-02 -3.61215286e-02 2.01295484e-02
      1.93781089e-02 1.49144884e-02 -9.57347453e-03 2.16089245e-02
      -4.78401897e-04 1.95522122e-02 -1.35085790e-03 -8.22222792e-03
      1.17160724e-02 -4.63780621e-03 -5.20304479e-02 -2.87991395e-04
      -1.36332139e-02 4.80385832e-02 2.39285752e-02 -6.45092595e-03
      1.33243445e-02 -1.46784568e-02 -1.04792807e-02 8.43310170e-03
      3.30513529e-03 -1.67223513e-02 2.71724276e-02 2.39358880e-02
      9.25699621e-03 3.83766927e-02 -2.24054954e-03 1.63043793e-02
      -2.12873123e-03 4.00307542e-03 -5.67679387e-03 4.58806157e-02
      -3.33553040e-03 9.51226320e-05 -1.90506149e-02 -2.49111541e-02
      -9.85899568e-02 -3.25639267e-03 2.63059568e-02 -1.71980914e-02
      -1.94908772e-02 -1.54752275e-02 6.75243966e-04 5.98060898e-04
      1.56678213e-03 7.61972964e-02 1.17692072e-02 2.04111971e-02
      1.86334755e-02 7.12478627e-03 3.46598476e-02 -1.34846494e-02
      1.97899174e-02 -6.86425809e-03 -2.27234047e-02 -6.92476332e-02
      1.10572316e-02 7.95325078e-03 5.46979122e-02 1.67156421e-02
      1.61473528e-02 4.88937600e-03 2.28960277e-03 -4.07671146e-02
      -1.64598785e-02 2.62437817e-02 1.10878460e-02 -1.36765866e-02
      1.31152533e-02 -4.61210118e-04 1.26882857e-02 -2.59001330e-02
      -3.75493011e-03 1.80128217e-02 -3.63590982e-04 2.36325599e-02
      -1.03710994e-01 5.42520620e-02 -3.63229848e-02 -9.43015330e-03
      4.66116099e-03 -2.52147531e-03 1.49678905e-02 -6.82128826e-03
      -4.55437182e-03 -1.33149289e-02 -3.92769463e-02 -3.43940765e-01
      1.39436862e-02 2.44919676e-02 4.87909233e-03 -3.80747463e-03
      1.19704068e-01 -5.89531241e-03 -3.84576172e-02 -2.10441183e-02
      -1.41789079e-01 7.19095953e-03 -2.19808612e-02 9.22429282e-03
      4.70181890e-02 2.73613073e-02 9.71433893e-03 1.55494874e-03
      8.48118216e-03 -3.59282130e-03 3.01312702e-03 -8.73747021e-02
      2.99553759e-02 1.05636567e-02 8.98854560e-05 -3.29862013e-02
      3.99811827e-02 -9.17976082e-04 2.35288776e-03 6.09867321e-03
      1.26653491e-02 1.11441407e-02 -9.82229970e-03 7.75869144e-03
      -1.13135474e-02 1.92326605e-02 1.84549913e-02 1.59220062e-02
      -8.59601051e-03 1.39534967e-02 1.71267986e-02 5.50976694e-02
      -1.29541978e-02 -5.38447546e-03 -1.38627423e-03 -2.36756802e-02
      4.39040968e-03 2.17445251e-02 -1.15007535e-02 -1.12082185e-02
      1.69044100e-02 3.55469510e-02 -2.06295811e-02 -6.10910244e-02
      -5.45703508e-02 1.86251476e-02 1.21399695e-02 2.09281296e-02
      -6.66777138e-03 8.29918236e-02 1.20264105e-02 -4.23542550e-03
      1.76489644e-03 -1.65929105e-02 5.91015443e-04 -2.39131860e-02
      1.41165536e-02 9.89781693e-03 2.08128374e-02 2.19564829e-02
      9.57767013e-03 5.77262603e-03 1.23423096e-02 8.41267481e-02
      -1.53676039e-02 1.82763562e-02 2.60267146e-02 4.63557243e-02
      1.94173753e-02 -1.28143532e-02 6.92843972e-03 2.59083491e-02
      -1.15897693e-03 -4.72664870e-02 2.81200688e-02 1.28601994e-02
      -6.61017792e-03 1.82173820e-03 -9.07259285e-02 -5.80802597e-02
      1.52703198e-02 -4.47569322e-03 1.44293113e-02 1.03292167e-02
      1.31522629e-05 1.22037041e-03 1.02969669e-02 -8.37412402e-02
      -8.27571899e-02 2.23558843e-02 1.12881260e-02 1.56791899e-02
      2.00317856e-02 -4.18348378e-03 3.80540788e-02 -3.73638934e-03
      2.13317256e-02 -2.02800669e-02 4.64500003e-02 -1.17086638e-02
      -5.12535451e-03 1.19479923e-02 -2.38282583e-03 9.93175339e-03
      -1.21534644e-02 3.61569114e-02 -4.52579185e-02 -3.95641522e-03
      2.46158298e-02 2.00189669e-02 -2.80463956e-02 -3.64029640e-03
      4.24930863e-02 -6.29057249e-05 5.61932772e-02 -2.13372987e-03
      2.87973918e-02 4.40351665e-02 1.05191646e-02 -1.58198252e-02
      1.48066143e-02 3.98959927e-02 -1.38366697e-02 -6.45284681e-03
      -1.61878131e-02 1.01695731e-02 2.52217948e-02 -9.02016163e-02
      -6.48456020e-03 6.26928592e-03 1.06702128e-03 -2.32236572e-02
      -9.37596709e-03 -2.20857151e-02 1.06415190e-02 1.92136061e-03
      2.09827833e-02 -5.06031653e-03 -3.77378725e-02 -3.34105305e-02
      -1.25580892e-01 2.56832074e-02 -1.50744226e-02 2.09999140e-02
      1.20946264e-03 2.70463284e-02 -1.38286990e-03 -3.85016166e-02
      1.30912550e-02 -2.88476292e-02 4.96357679e-02 1.41821057e-02
      5.57477586e-03 4.96504828e-04 2.80754268e-02 -7.47289062e-02
      2.40442511e-02 1.07018952e-03 7.01104570e-03 -1.53534757e-02
      1.40717495e-02 -2.50941403e-02 8.00183713e-02 1.51099088e-02
      -1.40238917e-02 4.33835550e-04 -5.54398932e-02 2.19211392e-02
      1.12626785e-02 6.24621334e-03 2.03895774e-02 -3.08815986e-02
      9.62203555e-03 -1.77164078e-02 -1.40564628e-02 2.59439535e-02
      -9.07610822e-03 -1.03694964e-02 2.31623445e-02 -4.26472817e-03
      2.83392761e-02 2.52960008e-02 1.49240419e-02 5.87460352e-03
      3.82889770e-02 -2.55942089e-03 3.61688510e-02 -4.42308234e-03
      1.63716134e-02 -4.98679765e-02 1.43742431e-02 6.56455429e-03
      -1.60669014e-02 -1.77218188e-02 -7.86804408e-03 -2.94994581e-02
      -1.10891173e-02 8.25044420e-03 -8.83737858e-03 5.40717598e-03
      -1.66814458e-02 -1.22757731e-02 -2.17477884e-02 -7.97317550e-03
      3.02218320e-03 2.59987377e-02 6.04082132e-03 7.92497210e-03
      1.41310450e-02 6.38714992e-04 -1.16842398e-02 1.19638434e-02
      -1.65294986e-02 -7.15799909e-03 -5.61614241e-03 -5.30073419e-04
      -2.10260972e-03 9.14671749e-04 -1.42358700e-02 -4.05589826e-02
      -1.27767250e-02 2.66342722e-02 2.33844835e-02 -9.40023642e-03
      8.11306387e-03 -1.12557439e-02 -3.51894796e-02 9.17382911e-03
      7.07707973e-03 1.47609366e-02 1.99229782e-03 -2.23320420e-03
      8.42026994e-03 -1.41222226e-02 1.86650064e-02 -4.13691290e-02
      -9.75564122e-03 6.88050967e-03 -3.21870483e-03 4.47087921e-03
      -2.20208839e-02 5.66342892e-03 -4.17929813e-02 1.91727821e-02
      -2.76527219e-02 -6.47413805e-02 2.84617990e-02 1.42260280e-03
      -7.61739537e-03 6.64750696e-04 1.85997225e-02 -1.70332491e-02
      9.70403198e-03 -4.19561006e-02 -1.05642583e-02 -1.27843348e-02
      -1.85583774e-02 -7.94530474e-03 6.50862232e-02 7.41085410e-03
      4.14780416e-02 4.69488204e-02 1.39120240e-02 -9.94441006e-03
      6.74582133e-03 2.67223846e-02 2.70575006e-03 1.51348440e-03
      1.61349159e-02 1.68305393e-02 2.83826329e-03 1.67172949e-03
      -2.44355215e-05 5.28437267e-05 1.35881780e-02 -1.28072556e-02
      -3.54877152e-02 -2.78122835e-02 -2.48137936e-02 -4.03008722e-02
      -3.89649868e-02 -4.00987752e-02 5.36544528e-03 1.43840928e-02
      2.06012698e-03 -4.57527898e-02 -9.92404390e-03 2.17185989e-02
      1.91219337e-02 -4.44947258e-02 -8.78384709e-03 5.61792869e-03
      -7.53836380e-03 -4.47620638e-02 -3.41090038e-02 2.14404948e-02
      -2.26068427e-03 -2.36054137e-03 -2.33363807e-02 1.33896722e-02
      2.23768800e-02 -3.13464133e-03 -3.68802287e-02 -2.87451483e-02
      6.14016084e-03 -1.23187210e-02 -1.24001075e-02 -2.48798020e-02
      -1.47691844e-02 -1.87475476e-02 1.24531314e-02 -7.97702838e-03
      2.81023867e-02 2.09211670e-02 1.86079908e-02 -4.13387865e-02
      1.73200183e-02 3.46147306e-02 -1.05740018e-02 3.61775197e-02
      3.80888321e-02 4.43589762e-02 6.66284002e-03 -2.95075364e-02
      2.62237731e-02 8.77593551e-03 7.47487694e-02 4.03512269e-02
      -8.03934317e-03 -3.12053058e-02 -2.10037790e-02 1.56140197e-02
      4.69823964e-02 9.09413956e-03 -2.53015361e-03 3.17841172e-02
      6.20336412e-03 4.65318896e-02 -2.59977058e-02 -1.08842049e-02
      4.06069588e-03 -7.51610920e-02 -8.98920447e-02 -1.79089252e-02
      -1.59325767e-02 4.32891725e-03 -8.18280876e-02 5.24700694e-02
      -2.59423075e-04 3.95859368e-02 4.41614725e-02 -5.89933023e-02
      -2.22969893e-02 7.59239821e-03 6.15970232e-03 -2.39757635e-03
      -4.91096117e-02 1.82454530e-02 6.01223763e-03 -4.67475830e-03
      2.55938582e-02 -5.81982732e-02 1.39738731e-02 -5.86199050e-04
      -1.99205559e-02 1.19895466e-01 -2.79278830e-02 -1.41111547e-02
      2.22198777e-02 -3.98334600e-02 3.46329696e-02 3.90371308e-02
      -1.09392395e-02 5.02376724e-03 2.82906648e-02 1.38964579e-02
      5.15872091e-02 7.20547885e-03 3.40863802e-02 2.08717566e-02
      6.82214648e-03 -4.42241989e-02 -2.69924272e-02 7.23981159e-03
      1.49347270e-02 4.07653749e-02 -4.42322604e-02 7.85868764e-02
      3.25843580e-02 -9.57914721e-03 -5.45341801e-03 5.42172370e-03
      1.90551728e-02 1.07775698e-03 3.36843207e-02 -2.91397739e-02
      -1.01002650e-02 8.97189882e-03 1.92664377e-02 -2.43141446e-02
      1.65953822e-02 4.91645234e-03 -2.63718367e-02 -4.15491015e-02
      -4.58610803e-02 2.70651979e-03 3.45637626e-03 1.00092515e-02
      1.72039568e-02 1.95015352e-02 -1.92131009e-02 2.64050607e-02
      1.52021693e-02 -4.45705839e-03 4.52759117e-03 -2.45931502e-02
      -4.25360957e-03 2.08940748e-02 -1.69617347e-02 -1.07832323e-03
      -3.62580493e-02 -6.03000298e-02 2.17743199e-02 1.22874444e-02
      -4.43569161e-02 -8.05345401e-02 -1.38283651e-02 -5.48432115e-03
      2.19449103e-02 2.55701281e-02 6.71352772e-03 -3.48159187e-02
      1.65683944e-02 1.55275883e-02 -5.52293053e-03 -2.38984707e-03
      5.28375357e-02 5.65660559e-03 -1.58073492e-02 -2.33858805e-02
      2.05723774e-02 -2.19004937e-02 1.96465794e-02 -8.09730813e-02
      2.89112180e-02 1.76462922e-02 2.09882278e-02 -1.68202464e-02
      -4.40685777e-03 -6.83937669e-02 2.23740307e-03 4.18162905e-03
      8.11106991e-03 -1.25486613e-03 -1.04395812e-02 3.50114815e-02
      -1.10418331e-02 4.58854027e-02 1.94918588e-02 -9.02987178e-03
      -2.03042608e-02 -1.00847580e-01 -1.35894408e-02 1.03730652e-02
      2.67998483e-02 -4.70034555e-02 -8.14072266e-02 -1.82101447e-02
      -3.42833297e-03 2.49494631e-02 3.65178622e-02 1.65348202e-02
      1.67861041e-02 2.44794060e-02 -4.54391316e-02 5.29054739e-02
      1.75504368e-02 1.34680560e-02 3.88615131e-02 8.43459740e-02
      1.83116533e-02 7.73314154e-03 1.70388296e-02 2.86055077e-02
      -7.71817192e-03 1.41273076e-02 2.64976639e-02 2.26093419e-02
      2.07297336e-02 1.22773694e-02 -2.99488138e-02 1.01670355e-03
      -3.26320492e-02 1.58506464e-02 -2.33758464e-02 5.23927761e-03
      2.83545963e-02 -3.53617384e-03 8.15099478e-03 4.11605537e-02
      -1.50703201e-02 4.02135123e-03 -2.66053323e-02 -2.93752737e-03
      9.90927964e-03 -2.65448112e-02 -2.03501899e-02 -6.77205296e-03
      -1.90505702e-02 -1.12658078e-02 -6.52364967e-03 3.29252221e-02
      -1.91735104e-02 -7.11634476e-03 8.73552915e-03 -7.68819405e-03
      1.28661925e-02 8.21809396e-02 3.09147127e-02 7.00341444e-03
      7.31546292e-03 -2.11764071e-02 6.54433519e-02 1.34450151e-02
      9.84952375e-02 -8.61513708e-03 -9.71331298e-02 -6.60196319e-03
      -2.42761988e-03 1.42319975e-02 1.03504146e-02 6.42814068e-03
      1.32440567e-01 -2.15142649e-02 -1.53986132e-02 3.84546560e-03
      8.17384422e-02 -1.31505914e-02 -6.27511516e-02 3.31816380e-03
      1.09898357e-03 8.88810959e-03 -1.83171239e-02 -1.31195551e-03
      8.20979383e-03 1.50257125e-02 2.48419810e-02 9.16115381e-03
      -1.49007817e-03 5.87155186e-02 1.21190613e-02 -2.06380319e-02
      8.44858680e-03 -5.61401248e-04 -4.75373026e-03 -7.85991997e-02
      2.85968073e-02 5.53209782e-02 -2.93339323e-02 -1.60295574e-03
      -5.36626624e-03 1.82965901e-02 1.13274576e-02 -1.90909021e-02
      1.21070761e-02 -3.46504264e-02 -1.19439803e-01 1.26117666e-03
      -2.18649693e-02 1.82703361e-02 1.25601050e-02 1.29643073e-02
      1.45319859e-02 -5.92451356e-02 2.26994175e-02 7.17337755e-03
      -2.69405656e-02 -1.58325839e-03 1.68346893e-03 9.93061811e-03</_></support_vectors>
  <decision_functions>
    <_>
      <sv_count>1</sv_count>
      <rho>-9.9649130338239345e-01</rho>
      <alpha>
        1.</alpha>
      <index>
        0</index></_></decision_functions></my_svm>
</opencv_storage>
