<?xml version="1.0"?>
<opencv_storage>
<my_svm type_id="opencv-ml-svm">
  <svm_type>C_SVC</svm_type>
  <kernel><type>LINEAR</type></kernel>
  <C>1.</C>
  <term_criteria><epsilon>2.2204460492503131e-16</epsilon>
    <iterations>100</iterations></term_criteria>
  <var_all>1000</var_all>
  <var_count>1000</var_count>
  <class_count>2</class_count>
  <class_labels type_id="opencv-matrix">
    <rows>1</rows>
    <cols>2</cols>
    <dt>i</dt>
    <data>
      -1 1</data></class_labels>
  <sv_total>1</sv_total>
  <support_vectors>
    <_>
      7.67435506e-03 5.07618450e-02 2.95725726e-02 5.96907586e-02
      7.18519278e-03 -3.45206670e-02 1.45221259e-02 -2.30149060e-01
      -9.00565237e-02 3.17182578e-02 3.01281344e-02 6.86508045e-02
      1.99302584e-02 1.42688341e-02 7.97241740e-03 -1.72369964e-02
      2.66957115e-02 3.82225215e-03 5.05269244e-02 4.01988393e-03
      7.92417023e-03 1.32543910e-02 -2.26204857e-01 -9.97366477e-03
      2.78054588e-02 -4.18528914e-03 9.73071717e-03 2.77386419e-02
      7.34125357e-03 9.10108164e-03 1.69084985e-02 -1.78246740e-02
      8.05866718e-03 1.69424992e-02 -1.25738949e-01 1.37494728e-02
      1.03482464e-03 1.10666286e-02 -1.65614828e-01 -2.70049255e-02
      7.71428598e-03 -7.24440347e-03 3.83137167e-02 2.58798595e-03
      2.80676391e-02 2.50930171e-02 9.29348543e-03 5.82193211e-03
      7.15962984e-03 1.26214707e-02 1.12240333e-02 2.16254871e-02
      1.39828166e-02 2.65543722e-02 3.24573442e-02 -1.50476977e-01
      1.30880969e-02 5.38646393e-02 4.72355187e-02 5.49109234e-03
      2.14602817e-02 -2.75036618e-02 1.50960218e-02 -4.59969863e-02
      1.99236330e-02 1.52716786e-02 3.94421667e-02 1.93903092e-02
      8.15808866e-03 4.57087792e-02 -1.25809833e-01 1.59129024e-01
      6.30104262e-03 2.12036539e-02 2.66755372e-02 2.11777948e-02
      1.24759441e-02 3.16764005e-02 7.80719426e-03 3.90954241e-02
      1.59128383e-02 2.11935341e-02 2.10046098e-02 6.48193527e-03
      4.68194783e-02 4.08069454e-02 -6.44061983e-01 7.78643554e-03
      -3.99584044e-03 1.92302950e-02 1.80724990e-02 1.26734991e-02
      2.78785545e-02 -5.28972072e-04 2.41421014e-02 -1.08014077e-01
      1.60678662e-02 7.28315162e-03 1.68868862e-02 4.90925414e-03
      5.68026071e-03 4.32472751e-02 8.33846105e-04 1.17321601e-02
      5.45120984e-02 -2.14770600e-01 3.26142311e-02 1.09483078e-02
      -3.14928330e-02 1.53606636e-02 1.22217014e-02 -3.17085127e-04
      -1.18504792e-01 -3.46525721e-02 1.66904144e-02 -1.44917294e-01
      5.26597770e-03 1.84347294e-02 1.35607142e-02 3.82407494e-02
      1.90542340e-02 -9.51152071e-02 2.41833217e-02 1.26771918e-02
      -2.93971431e-02 1.52649786e-02 9.87216644e-03 1.89822689e-02
      -7.68143758e-02 2.07075961e-02 5.14469342e-04 1.41445911e-02
      1.10091260e-02 7.31371250e-03 1.04194907e-02 1.44377593e-02
      -6.69730175e-03 1.81105863e-02 3.17474380e-02 -7.36661553e-02
      -3.35764661e-02 -1.85991880e-02 -2.24677011e-01 2.46511549e-02
      2.41268110e-02 2.63580494e-02 4.83781565e-04 2.97400113e-02
      5.65256272e-03 1.11831650e-02 3.83827952e-04 -1.10582039e-02
      1.84479207e-02 1.19374394e-02 1.03110280e-02 1.56927425e-02
      1.61966011e-02 -3.12205665e-02 3.18445750e-02 -7.88949430e-04
      1.00835878e-02 5.44317998e-03 1.82668641e-02 1.05542215e-02
      3.77978832e-02 -4.65776725e-03 1.04269302e-02 3.85950990e-02
      1.42729357e-02 5.22378879e-03 1.52618270e-02 2.13415306e-02
      1.18082101e-02 3.20376852e-03 3.37439887e-02 -1.68956533e-01
      2.51362324e-02 2.49874662e-03 1.67795923e-02 -2.94146291e-03
      2.25913990e-02 3.50332223e-02 -1.77983582e-01 1.51558500e-02
      2.36887541e-02 1.55206611e-02 1.47797586e-02 1.28336912e-02
      2.01859400e-02 8.27199593e-03 2.25117952e-02 -4.73491708e-03
      1.53744649e-02 1.90052241e-02 7.55552063e-03 1.81336123e-02
      2.44759470e-02 1.10012246e-03 1.01008890e-02 -1.34054255e-02
      -2.10520383e-02 -5.68391057e-04 -2.01165443e-03 -5.01124933e-02
      1.02450484e-02 -7.43852556e-02 3.93394753e-02 2.48024054e-02
      1.89399887e-02 6.21680077e-03 6.27634153e-02 1.56758353e-02
      6.84393384e-03 2.17462834e-02 2.14446094e-02 1.73352137e-02
      1.49485487e-02 1.47527680e-02 1.52044911e-02 1.65488850e-02
      2.17794422e-02 1.11661106e-02 3.64411287e-02 1.34484293e-02
      1.02754021e-02 7.60296220e-03 1.31065426e-02 -2.92254463e-02
      1.76402926e-02 2.58080009e-02 7.38451257e-03 3.23141343e-04
      7.59282103e-03 1.46443788e-02 -1.84512630e-01 -5.13330586e-02
      -7.37236440e-03 3.07047274e-02 3.74044664e-03 9.01037536e-04
      1.28199533e-02 1.23546226e-02 1.41774770e-02 -2.82050297e-02
      3.55896214e-03 -8.87720361e-02 9.56569239e-03 6.21620333e-03
      3.58588509e-02 1.33119645e-02 5.50534353e-02 1.84658654e-02
      2.25964785e-02 2.66896952e-02 -8.61924083e-04 5.23452973e-03
      1.78677421e-02 3.09471972e-03 2.79329102e-02 2.70055942e-02
      6.43566474e-02 2.06901375e-02 1.08992476e-02 3.06341778e-02
      3.85813713e-02 6.90646097e-03 3.12785711e-03 6.78204885e-03
      2.91907080e-02 4.49238010e-02 2.97464896e-02 5.04201166e-02
      2.86058914e-02 3.02850232e-02 1.32377706e-02 2.17200164e-02
      5.44349141e-02 3.83750699e-03 1.93665549e-02 -2.45266426e-02
      1.59219168e-02 8.92335922e-03 -1.42647743e-01 -2.44444177e-01
      7.55224237e-03 9.16988030e-03 2.14444045e-02 -5.97241707e-03
      1.37504758e-02 2.54444890e-02 -1.46694869e-01 1.01515166e-02
      1.58155281e-02 2.20583118e-02 1.57924928e-02 4.24137637e-02
      2.72986945e-03 3.08869616e-03 3.07689607e-02 6.30796468e-03
      -5.85226342e-03 -2.97475560e-03 3.06041837e-02 1.21806664e-02
      4.79912991e-03 7.09808841e-02 -1.13821134e-03 1.40693411e-02
      4.44504432e-03 3.55873001e-03 6.99310191e-03 3.77349444e-02
      -9.96061563e-02 2.91563999e-02 -1.62549406e-01 9.93600488e-03
      5.59229068e-02 3.18204127e-02 1.49483932e-02 3.47940135e-03
      1.76192529e-03 -7.91331381e-02 1.05106868e-02 -3.06981765e-02
      9.79452021e-03 8.54395237e-03 7.09036272e-03 2.06309874e-02
      1.18003683e-02 1.34353265e-02 -1.10958219e-02 -1.97827984e-02
      1.05458563e-02 2.18890980e-02 2.32930481e-02 2.97975931e-02
      4.73524593e-02 8.40803981e-03 8.48695636e-03 1.88764539e-02
      1.38626546e-02 4.50078724e-03 1.16981640e-02 -7.79489130e-02
      -4.44097579e-01 1.42966080e-02 -3.16086635e-02 3.83475274e-02
      1.71089265e-02 1.56104397e-02 2.57772580e-02 2.63173040e-02
      1.52309975e-02 9.34595522e-03 1.50459725e-02 2.30418034e-02
      1.36426566e-02 -5.64134680e-02 3.57280076e-02 1.41124241e-02
      2.18618475e-02 1.40186679e-02 5.49503341e-02 -9.46441386e-03
      1.48808816e-02 3.91730927e-02 -2.33981153e-03 1.73586961e-02
      1.47515805e-02 -6.23964727e-01 5.33515494e-03 1.42651470e-02
      -4.48188782e-01 6.53139874e-03 1.05950432e-02 4.19631898e-02
      9.93033592e-03 1.00240894e-02 -5.36845578e-03 3.11853364e-02
      -5.38063422e-02 5.81625625e-02 -5.18597625e-02 -1.16307028e-01
      -7.07047880e-02 2.63507329e-02 -1.08084260e-02 1.67378373e-02
      2.67054345e-02 7.50925671e-03 2.20396835e-02 9.04743467e-03
      1.12715773e-02 1.37531366e-02 -4.85872999e-02 3.98335457e-02
      -6.31681783e-03 -5.14361076e-02 2.21967064e-02 6.18428830e-03
      -9.18859802e-03 3.41305397e-02 1.54024614e-02 2.08377298e-02
      1.89856980e-02 8.63917917e-03 1.26285180e-02 -6.06718892e-03
      3.64083946e-02 -2.52700550e-03 1.70112606e-02 1.15371212e-01
      6.08047610e-03 1.93273406e-02 2.81758700e-02 6.22932333e-03
      -1.93648964e-01 1.80063918e-02 4.36686762e-02 6.86703809e-03
      3.89060341e-02 2.03184634e-02 1.32642658e-02 1.50252394e-02
      7.63350958e-03 3.13909724e-02 2.98823025e-02 -7.85813928e-02
      4.31649573e-03 2.98168380e-02 3.42096426e-02 7.88793117e-02
      2.69976892e-02 3.22148181e-03 8.79097916e-03 2.49128416e-02
      -4.47561219e-02 1.39657194e-02 -7.33543420e-03 -6.66452991e-03
      3.88920009e-02 1.58788208e-02 -6.16017170e-02 -2.06862301e-01
      -1.79457460e-02 -6.25415519e-02 3.91697604e-03 2.36329250e-02
      2.93343104e-02 -1.21940989e-02 2.02815831e-02 2.25382522e-02
      -6.35533268e-03 2.07347684e-02 2.30471063e-02 2.94589270e-02
      -1.51611324e-02 7.85608590e-03 1.95288248e-02 3.47146317e-02
      2.41562407e-02 1.07224248e-02 4.09833621e-03 3.31380218e-02
      2.85431538e-02 -3.92385393e-01 -2.93397298e-03 1.12425294e-02
      4.30849567e-02 -2.81629056e-01 2.85290517e-02 1.66098922e-02
      -1.27453431e-02 1.51192192e-02 3.02526392e-02 3.89799736e-02
      8.48048460e-03 4.93259542e-03 1.00514116e-02 2.30781995e-02
      2.18371917e-02 6.38089702e-03 2.71300063e-03 -4.67653945e-02
      -1.16191665e-02 -4.62478139e-02 2.50458736e-02 -1.39029264e-01
      3.51248048e-02 4.68730889e-02 2.28081718e-02 1.85270421e-02
      2.24319771e-02 5.08194640e-02 7.02900290e-02 2.15335153e-02
      2.55010948e-02 -4.23112977e-03 8.02291334e-02 3.85446772e-02
      7.14411354e-03 1.59587059e-02 5.73830977e-02 -1.78281683e-02
      1.97104532e-02 4.16567624e-02 1.49849495e-02 2.56872866e-02
      6.52370304e-02 1.08901067e-02 7.99231976e-03 -3.58052528e-03
      1.10895950e-02 1.38302241e-02 -5.18461689e-03 1.09546902e-02
      2.55479086e-02 1.78650543e-02 1.83722544e-02 2.48230472e-02
      1.10492520e-02 5.08779986e-03 1.47343492e-02 3.12413462e-02
      1.71440188e-02 5.61007932e-02 1.69729325e-03 3.57646607e-02
      1.99395400e-02 1.84256472e-02 1.19174505e-02 -1.39803917e-03
      -1.28806680e-01 1.55478045e-02 1.16634099e-02 -1.68882638e-01
      -6.42273501e-02 -3.27065610e-03 6.12573279e-03 2.59233136e-02
      4.35008258e-02 5.09248115e-03 1.50509859e-02 7.34666362e-03
      9.72221885e-03 2.45766714e-03 -2.82456982e-03 5.36630116e-02
      1.31724915e-02 1.12862531e-02 -2.03541681e-01 2.48094779e-02
      -4.87473533e-02 -2.28223018e-02 3.31937615e-03 2.11602952e-02
      8.64553079e-03 2.36697699e-04 -1.36683658e-02 2.53813565e-02
      -5.62597327e-02 6.80035073e-03 7.25074532e-03 1.95095651e-02
      -3.95426014e-03 -8.77721310e-02 5.38584916e-03 1.48481475e-02
      9.74414032e-03 6.97330898e-03 -1.07603863e-01 -2.79876031e-03
      4.71268594e-03 1.81504898e-02 3.03573608e-02 1.40080629e-02
      2.44926680e-02 2.23039631e-02 3.20311822e-03 -7.75997061e-03
      6.10732241e-03 1.10353213e-02 -7.04132318e-02 3.79121932e-03
      6.34439057e-03 4.21110615e-02 2.47890819e-02 1.45392949e-02
      1.57427676e-02 2.36942023e-02 2.04804558e-02 8.27273540e-03
      8.86632223e-03 1.63166001e-02 1.18925581e-02 1.05862983e-01
      2.20523607e-02 1.34060998e-02 1.03076287e-02 3.61308479e-03
      1.59596733e-03 -1.64337512e-02 -1.42336031e-02 -1.15695286e-04
      1.82614084e-02 2.04802100e-02 3.27488258e-02 5.97964078e-02
      4.24545333e-02 -8.72344989e-03 -8.74069631e-02 1.34542203e-02
      1.81112904e-02 1.22572714e-02 1.07316133e-02 3.51700187e-02
      1.33040743e-02 9.20763053e-03 1.36187728e-02 -7.45390356e-02
      1.79211721e-02 -7.01570734e-02 2.19907574e-02 -9.98853371e-02
      -1.07483424e-01 8.56625754e-03 8.72962736e-03 3.43099842e-03
      1.75733902e-02 1.59365237e-02 1.74017902e-02 8.76370724e-03
      7.45879300e-03 9.60484426e-03 -7.06944102e-03 7.12872017e-03
      2.63732951e-02 5.75584639e-03 9.12196096e-03 4.34364043e-02
      1.82463136e-02 8.54982901e-03 -1.22372666e-02 -4.01472487e-02
      4.47093919e-02 -3.52844447e-02 1.57103222e-02 5.35597932e-03
      4.74397419e-03 1.37385610e-03 7.07545783e-03 1.80832427e-02
      2.06315517e-02 1.59198046e-02 1.34721287e-02 -3.70000601e-02
      1.79751646e-02 4.66827005e-02 2.48380043e-02 1.80581235e-03
      8.99630785e-03 1.25953294e-02 8.35968181e-03 1.37636559e-02
      -8.41392651e-02 2.35459413e-02 7.79114570e-03 1.60282385e-02
      2.56293193e-02 3.37505713e-02 1.53671028e-02 1.71002392e-02
      2.74744611e-02 2.31945906e-02 1.09452028e-02 3.11018303e-02
      7.79376645e-03 -2.96334196e-02 1.87433194e-02 1.47539563e-02
      6.01205509e-03 1.36643872e-01 -1.75199345e-01 -2.30003446e-02
      -1.08553497e-02 -2.62087081e-02 -5.60305407e-03 1.41538875e-02
      1.50010623e-02 8.25887639e-03 9.49047506e-03 7.45741650e-03
      -9.04581742e-04 2.87268199e-02 1.39272483e-02 1.17952758e-02
      1.68997664e-02 3.11979838e-02 2.98930164e-02 9.82779544e-04
      2.48550251e-02 3.28354985e-02 1.91641450e-02 1.72253307e-02
      1.50232147e-02 1.16387438e-02 2.69254670e-02 -8.09769779e-02
      -7.59852827e-02 2.27363892e-02 -9.46360361e-03 -1.03917927e-01
      1.04852710e-02 3.06922514e-02 -4.80136238e-02 1.99000724e-02
      2.73349253e-03 2.46731527e-02 1.56834945e-02 1.94712803e-02
      1.63531210e-02 1.13764415e-02 3.09402030e-02 -9.71663930e-03
      2.16560662e-02 -3.57322320e-02 2.25235522e-02 1.09621221e-02
      2.54872013e-02 2.73614284e-02 3.57470624e-02 7.32140150e-03
      5.50949201e-03 1.47292605e-02 1.71006266e-02 -1.35456761e-02
      2.05520391e-02 1.46306772e-02 6.53152075e-03 2.80986894e-02
      5.61681874e-02 -6.65412620e-02 4.41477727e-03 2.37938128e-02
      4.17769216e-02 1.83361396e-02 -1.11581691e-01 1.55503321e-02
      1.83599982e-02 1.77178606e-02 1.18432976e-02 1.46201383e-02
      -2.61502951e-01 4.47037630e-03 2.31679659e-02 1.78142320e-02
      8.95878021e-03 -7.95489922e-03 -8.24954584e-02 1.33189149e-02
      -1.19034596e-01 5.34364097e-02 4.18676808e-02 3.04689128e-02
      2.31265277e-02 7.97312800e-03 8.59230310e-02 4.63888049e-02
      9.25927982e-03 5.37196686e-03 8.35040864e-03 1.94476414e-02
      2.86180023e-02 -1.03617541e-01 -2.97987945e-02 7.23163784e-03
      3.04503050e-02 2.07668301e-02 -4.47451428e-04 1.12966597e-02
      -4.47486751e-02 4.89199720e-02 6.23461371e-03 6.28155768e-02
      -6.66134409e-04 -3.87668431e-01 5.87608293e-03 1.08486097e-02
      2.58868672e-02 1.00108413e-02 1.51766194e-02 -7.10468087e-03
      7.60127464e-03 1.18240044e-02 7.35380873e-02 2.00782195e-02
      2.03121861e-04 -1.69377625e-01 7.36632049e-02 1.82681791e-02
      1.13796035e-03 2.08109226e-02 1.45871872e-02 1.22996410e-02
      8.39051697e-03 1.02997164e-03 2.47234888e-02 -1.70951765e-02
      2.82416046e-02 6.36716560e-03 1.29548023e-02 -1.19220801e-02
      1.91673879e-02 1.02466699e-02 1.56949100e-03 6.54909806e-03
      7.66244996e-03 4.55534784e-03 2.78764982e-02 -9.62950569e-03
      2.05328427e-02 2.87270900e-02 -1.19985798e-02 3.91769037e-03
      1.82166807e-02 6.77312259e-03 -3.79647203e-02 1.26044303e-02
      1.01241916e-02 -2.16607049e-01 5.46673611e-02 3.09190303e-02
      -3.47875617e-02 -2.19625086e-02 5.81676653e-03 3.68896052e-02
      1.19596487e-02 1.09224319e-02 -2.17059674e-03 1.25096105e-02
      7.96560571e-03 2.05097739e-02 1.79702286e-02 2.50868946e-02
      1.21860662e-02 1.78416390e-02 1.65935922e-02 -5.61426068e-03
      -5.37677743e-02 1.43708335e-02 -1.93677582e-02 -2.23204404e-01
      -1.63399111e-02 -3.71339638e-03 5.53019084e-02 4.56539821e-03
      -2.53433753e-02 1.85082499e-02 3.49128731e-02 4.76575876e-03
      1.40333883e-02 1.94774270e-02 1.72937158e-02 6.71974197e-03
      6.04734849e-03 5.36364391e-02 1.04269581e-02 2.25744620e-02
      -2.98944931e-03 4.96288426e-02 -1.89967081e-02 -2.16762535e-03
      2.95458849e-05 1.61752831e-02 7.10505014e-03 2.56743561e-02
      3.42413969e-02 -4.84823575e-03 5.77563187e-03 3.19383480e-02
      2.59981453e-02 2.80618034e-02 1.04506947e-02 9.89343785e-03
      -1.16683066e-01 -4.06219363e-02 5.98438457e-02 -3.34274047e-03
      1.68524887e-02 2.09192000e-02 3.56476530e-02 1.13127744e-02
      -2.22962834e-02 3.09340842e-03 2.03024335e-02 6.27179518e-02
      2.14045048e-02 1.58513654e-02 -2.42653131e-01 8.11975524e-02
      2.95776334e-02 4.30783555e-02 7.23595172e-03 5.90573205e-03
      -1.44266780e-03 1.54646961e-02 4.55245711e-02 1.82306860e-02
      1.04327109e-02 1.08493995e-02 1.12009887e-02 1.15684858e-02
      2.06640493e-02 5.06687462e-02 6.65132189e-03 3.67731717e-03
      2.18002517e-02 4.01708856e-02 5.84621122e-03 1.10943355e-02
      7.56934332e-03 -1.02809202e-02 6.06760569e-02 -1.41350657e-03
      2.72859796e-03 1.03212688e-02 2.31845900e-02 3.65622039e-03
      1.21116946e-02 -1.84315830e-01 -2.09515467e-02 8.97715017e-02
      1.18362606e-02 1.67566445e-02 1.54582644e-02 -2.94123497e-02
      9.66380164e-03 -2.16334742e-02 1.60954949e-02 2.64649354e-02
      5.55555569e-04 2.36886367e-02 9.83758196e-02 -1.55947753e-03
      8.96673501e-02 1.77321844e-02 3.78191248e-02 6.10022631e-04
      4.42636274e-02 -1.76130906e-02 1.49496561e-02 7.91170262e-03
      -5.19242048e-01 1.26914987e-02 1.39730256e-02 8.45347345e-03
      -3.37827653e-01 1.26561811e-02 7.92544708e-03 4.23822924e-02
      1.19335914e-03 -6.79006279e-02 1.41158449e-02 7.09622074e-03
      1.06754573e-02 7.14784209e-03 -4.55710432e-03 8.53872951e-03
      -2.56318990e-02 -4.47584055e-02 7.58583518e-03 1.01193432e-02
      -1.44852474e-01 -4.05504592e-02 -3.84649523e-02 2.67440663e-03
      2.75861584e-02 1.45399850e-02 1.47381984e-02 1.14320442e-02
      -1.96837969e-02 1.11736348e-02 6.34113047e-03 2.89558014e-03
      -2.29759067e-02 1.04916440e-02 3.14344987e-02 -1.56746544e-02
      1.85088795e-02 -5.13238134e-03 2.40068194e-02 2.40871310e-02
      -9.65500530e-03 2.00882647e-02 -3.75080691e-03 -6.56582369e-03
      1.49296187e-02 -2.01071694e-01 1.62890218e-02 4.11643237e-02</_></support_vectors>
  <decision_functions>
    <_>
      <sv_count>1</sv_count>
      <rho>-1.0175674236373824e+00</rho>
      <alpha>
        1.</alpha>
      <index>
        0</index></_></decision_functions></my_svm>
</opencv_storage>
