<?xml version="1.0"?>
<opencv_storage>
<my_svm type_id="opencv-ml-svm">
  <svm_type>C_SVC</svm_type>
  <kernel><type>LINEAR</type></kernel>
  <C>1.</C>
  <term_criteria><epsilon>2.2204460492503131e-16</epsilon>
    <iterations>100</iterations></term_criteria>
  <var_all>1000</var_all>
  <var_count>1000</var_count>
  <class_count>2</class_count>
  <class_labels type_id="opencv-matrix">
    <rows>1</rows>
    <cols>2</cols>
    <dt>i</dt>
    <data>
      -1 1</data></class_labels>
  <sv_total>1</sv_total>
  <support_vectors>
    <_>
      -3.97870503e-02 5.73086366e-02 1.11922016e-02 3.46940495e-02
      9.98908374e-03 3.14094685e-02 -1.34329414e-02 3.30412909e-02
      4.09028530e-02 1.44672533e-02 2.70274114e-02 3.25091556e-02
      4.51024564e-04 3.18577001e-03 1.88991334e-02 2.56061070e-02
      -1.31694660e-01 9.27303452e-03 3.08188200e-02 2.22167559e-02
      -1.17481187e-01 1.67023260e-02 6.97246334e-03 -2.70548835e-02
      2.64560729e-02 2.05516070e-02 -1.09144561e-02 -1.23805730e-02
      6.74704136e-03 1.07235201e-02 -1.77813526e-02 8.99282750e-03
      -7.08580017e-02 1.93571337e-02 1.21389003e-02 -1.19390629e-01
      3.33764628e-02 -1.57893673e-02 -4.81643761e-03 9.55818407e-03
      1.41928606e-02 -5.92468455e-02 3.06813959e-02 1.97637063e-02
      3.09706125e-02 -5.52729741e-02 -4.04420979e-02 -2.89099395e-01
      -1.64337635e-01 8.59548338e-03 -3.70935313e-02 2.69562323e-02
      8.46345443e-03 9.51836258e-03 1.41635723e-02 1.28037054e-02
      2.06612200e-02 -9.72693786e-03 3.98148447e-02 -3.98085192e-02
      3.00994124e-02 -3.11679058e-02 5.41326851e-02 2.52428036e-02
      6.09403886e-02 1.60519816e-02 -2.52010934e-02 -1.58922523e-02
      1.18907355e-02 1.35066230e-02 2.06021648e-02 1.63426902e-02
      -4.95505407e-02 4.14138734e-02 -1.28505903e-03 2.86237709e-03
      1.74523983e-02 -3.72309759e-02 3.47145908e-02 3.77674103e-02
      -1.02183565e-01 2.77168844e-02 3.74397747e-02 -4.35373280e-03
      2.41099652e-02 3.52400877e-02 1.49830654e-01 -3.35816592e-02
      2.33285427e-02 1.25406580e-02 -5.21423016e-03 2.53326800e-02
      -4.28568795e-02 1.00758788e-03 2.52094993e-04 9.94310826e-02
      3.25736664e-02 -2.70091314e-02 -7.00693997e-03 5.45899151e-03
      8.83885566e-03 3.39398310e-02 -2.00951733e-02 -6.00191951e-03
      1.33484136e-02 1.33466534e-02 2.15721987e-02 -6.83836825e-03
      8.51455145e-03 -2.52375081e-02 -1.54111367e-02 -2.38184929e-02
      3.93545441e-02 -3.38074490e-02 -2.67303977e-02 4.06073108e-02
      -2.10244581e-02 -1.13847675e-02 -7.33826607e-02 1.76822636e-02
      4.56692930e-03 3.23209874e-02 -1.48786148e-02 -2.90859081e-02
      2.69379709e-02 1.18716629e-02 -2.19680113e-03 1.37699256e-02
      7.73168867e-03 -2.15164362e-03 1.71750933e-02 6.82232529e-03
      3.86272445e-02 5.73629886e-03 -5.41955885e-03 5.84632121e-02
      -2.02452056e-02 1.07521797e-02 4.31927145e-02 4.89092320e-02
      -1.67088863e-02 -7.43353218e-02 4.67605107e-02 7.52669573e-02
      -3.00071854e-02 8.09693336e-03 1.40671916e-02 3.87828127e-02
      -5.97215258e-03 -2.02904139e-02 1.12274662e-02 1.87768713e-02
      1.51521415e-02 -6.74752891e-03 -5.43677919e-02 -2.51068245e-03
      -6.34813681e-02 -6.06354736e-02 2.87034139e-02 3.80011206e-03
      -3.99809517e-02 4.22652736e-02 3.43526118e-02 -5.04700616e-02
      -8.88930447e-03 4.33256961e-02 -6.19816221e-02 1.29563198e-03
      5.13845943e-02 3.49129438e-02 9.59598832e-03 2.27733366e-02
      -1.86606441e-02 8.52992013e-03 5.43404184e-02 4.00875509e-02
      3.14580463e-02 -2.09889427e-01 -7.38121569e-02 -7.04956893e-03
      3.68501730e-02 2.09768787e-02 3.84730920e-02 3.67743410e-02
      3.48667987e-02 -1.16443299e-02 -3.02587841e-02 -8.11036490e-03
      2.51806322e-02 -5.15348725e-02 -5.66343181e-02 2.81720958e-03
      9.24107991e-03 2.25569075e-03 -5.53438626e-02 -6.50476366e-02
      3.55641767e-02 -1.09767407e-01 3.91947106e-02 1.72832552e-02
      3.05632018e-02 -2.42546871e-02 -5.33527099e-02 1.01942047e-02
      -9.17637348e-03 9.75219160e-03 -9.36875527e-04 -1.98879894e-02
      -7.31539577e-02 -2.80321036e-02 3.95012647e-02 -3.69013264e-03
      -1.36272777e-02 -1.46160260e-01 -3.52435908e-03 -4.31084223e-02
      1.95574947e-02 1.56284198e-02 1.02920663e-02 2.58125011e-02
      -1.07725058e-02 -7.52677172e-02 2.23218109e-02 -2.68451124e-03
      -1.17918150e-02 6.91818539e-03 -5.28554479e-03 6.72854781e-02
      6.93989024e-02 2.06574183e-02 4.24328111e-02 2.29366329e-02
      1.09655550e-02 1.07015744e-02 4.45359536e-02 2.51224432e-02
      -1.89301483e-02 6.15900150e-03 -8.33753198e-02 -1.96199398e-02
      2.90007684e-02 8.31340905e-03 3.85268568e-03 2.79135779e-02
      -8.52409303e-02 1.70428623e-02 1.87080298e-02 1.51276244e-02
      2.96402280e-03 2.78540440e-02 -2.23758817e-03 -6.09477609e-02
      9.58599057e-03 6.51914328e-02 -2.00901348e-02 -6.77813813e-02
      2.73532644e-02 3.47591862e-02 4.70167734e-02 3.28307822e-02
      7.23118484e-02 -7.58103048e-03 2.73301080e-02 -1.03125749e-02
      2.40701586e-02 5.53009287e-03 7.74703547e-02 -6.50531426e-02
      5.04016466e-02 -2.01310553e-02 2.54327757e-03 5.09418622e-02
      5.26781306e-02 -4.65534115e-03 2.11445126e-03 4.15626019e-02
      3.08208112e-02 3.59419547e-02 1.27547644e-02 4.91166897e-02
      3.38887982e-02 1.97766330e-02 8.19687918e-02 4.35985774e-02
      1.08052441e-03 1.58984289e-02 -3.10514532e-02 1.61997939e-03
      1.86883146e-03 -6.84215948e-02 2.15267520e-02 -6.77940398e-02
      5.35439141e-02 4.60160747e-02 2.55920971e-03 4.89772446e-02
      -1.26778111e-02 1.19412513e-02 -3.51833529e-03 -1.93739146e-01
      -4.85085435e-02 -1.34378355e-02 -4.07975912e-02 -9.26735904e-03
      -2.38765180e-02 2.91140974e-02 1.14107300e-02 -3.21905408e-03
      -1.64822713e-02 -5.78377396e-03 1.40177598e-02 2.30906997e-02
      9.38559789e-03 1.08740032e-02 1.77081525e-02 -1.15427718e-01
      6.21002726e-02 -1.80248311e-03 1.59621052e-02 -1.92308232e-01
      1.21164676e-02 2.53001191e-02 7.56809767e-03 4.70331088e-02
      -7.13750124e-02 2.97291745e-02 9.75462794e-03 -4.20699604e-02
      1.03944978e-02 -1.17578588e-01 -1.08405259e-02 -1.68258492e-02
      3.29206139e-02 3.23259532e-02 3.98254246e-02 9.50155081e-04
      1.85545068e-02 -1.19482942e-01 -7.26357698e-02 3.00480518e-03
      3.18274982e-02 -7.99620058e-03 2.77377130e-03 1.96123905e-02
      5.87513391e-03 1.44808097e-02 2.43342319e-03 -3.70078790e-03
      7.52958981e-03 -9.90673155e-02 -1.49956018e-01 3.65760699e-02
      -3.92878018e-02 1.79455951e-02 8.21955130e-03 -1.20047443e-01
      -6.32851804e-03 2.76262127e-02 3.71847004e-02 5.04363235e-03
      4.09546085e-02 -4.60113995e-02 7.31928507e-04 1.79505646e-02
      -1.30603760e-02 -1.28216036e-02 -5.38101653e-03 -2.82385910e-04
      -3.20908683e-03 7.32171908e-02 -1.90721471e-02 1.24537153e-03
      2.26851534e-02 -2.24347740e-01 8.18491634e-03 -6.21691206e-03
      -9.04444531e-02 -8.58916249e-03 2.21059266e-02 4.77959216e-02
      2.03038845e-02 4.83883321e-02 9.42256749e-02 2.52550617e-02
      7.96890352e-03 4.21639904e-03 -6.80054585e-03 -1.76657829e-03
      4.40958105e-02 1.23235732e-02 -4.08630483e-02 -2.11935863e-02
      -1.01627380e-01 1.11531215e-02 1.66758373e-02 3.89377736e-02
      -5.65469339e-02 2.14949669e-03 2.67144050e-02 -1.45723503e-02
      5.84198907e-02 4.62312670e-03 2.16337647e-02 -1.84981618e-03
      1.06690591e-02 9.59771313e-03 -7.53771141e-02 -3.85372080e-02
      1.40837841e-02 9.99750569e-03 2.19199639e-02 5.98568246e-02
      -1.66311398e-01 3.85479480e-02 1.88613385e-02 -5.41180931e-03
      1.22650087e-01 -5.33028785e-03 4.84026596e-02 -5.36898624e-05
      5.60023189e-02 -5.72684221e-02 2.75979396e-02 -4.08529080e-02
      -8.07441622e-02 2.90492307e-02 2.25325953e-02 6.69878945e-02
      2.70402096e-02 1.21908635e-03 1.10989995e-03 5.57496250e-02
      -8.92982073e-03 -1.05887456e-02 -2.32104100e-02 4.51960377e-02
      4.95701507e-02 7.44010881e-03 -2.21960396e-02 -2.65129078e-02
      7.14594349e-02 3.47495340e-02 7.04193162e-03 9.41023044e-03
      1.50546739e-02 1.75731014e-02 -3.37189659e-02 -5.88282570e-02
      1.64362695e-02 7.78804198e-02 -5.39756864e-02 1.23180775e-02
      2.07420182e-03 -1.19588841e-02 -8.94520357e-02 2.54173223e-02
      9.70720779e-03 -2.14131214e-02 2.92972997e-02 -1.71795639e-03
      3.84850092e-02 3.58533859e-02 3.46267372e-02 1.69859938e-02
      2.03750357e-02 4.07159887e-02 -1.60677452e-02 2.41978969e-02
      1.70872547e-02 1.00182369e-01 7.41570629e-03 -1.33556938e-02
      1.42766582e-02 4.64018546e-02 2.92805750e-02 1.06363790e-02
      -2.07452551e-02 -2.98364013e-02 -8.69775284e-03 6.96356362e-03
      -3.33761908e-02 -4.34645079e-02 -4.55949195e-02 7.03363270e-02
      2.33551208e-02 1.71158940e-03 -6.73462823e-02 2.90233605e-02
      1.02794655e-02 1.52237797e-02 -1.29926294e-01 1.70979910e-02
      1.07451864e-02 3.68535817e-02 6.03619963e-02 -2.90063918e-02
      4.69161160e-02 8.86438508e-03 5.15290871e-02 1.86380185e-02
      -9.55724046e-02 1.18416734e-02 4.53404598e-02 -3.55657414e-02
      6.75858334e-02 -3.32792778e-03 1.82941612e-02 2.63097119e-02
      5.51682301e-02 1.48472190e-02 9.72849876e-03 -4.02133800e-02
      -1.89024641e-03 2.82564224e-03 -3.22819292e-03 2.77409833e-02
      -1.06042266e-01 -4.89844056e-03 -7.77015835e-02 1.41681302e-02
      7.63585232e-03 -3.59933381e-03 -8.04527774e-02 2.13938486e-02
      -2.19810344e-02 2.71263458e-02 9.37757175e-03 9.90429334e-03
      -4.33873897e-03 5.17964438e-02 1.21983690e-02 -6.15337789e-02
      -1.90898571e-02 3.42684053e-02 -4.05198298e-02 3.24310549e-02
      3.96173773e-03 -3.92482569e-03 -6.05664030e-03 4.23180759e-02
      -9.42427479e-03 -6.85936138e-02 2.38795988e-02 1.40375467e-02
      1.39374267e-02 4.31267172e-03 -3.86360139e-02 5.57245761e-02
      3.90707441e-02 2.60872841e-02 1.24997152e-02 -1.80523470e-02
      7.86734838e-03 1.77524071e-02 -3.77334096e-02 -8.63567181e-03
      -1.83573544e-01 -3.38937575e-03 6.49279682e-03 -9.19152796e-03
      7.28301704e-02 -1.42840287e-02 2.41394457e-03 -2.04127133e-02
      -4.07869648e-03 -8.10784474e-03 2.27113925e-02 1.05748698e-02
      -3.20269540e-02 1.01052318e-02 8.71595666e-02 3.08191925e-02
      -7.58886635e-02 -7.33516703e-04 -5.44048958e-02 4.18610983e-02
      3.56145315e-02 -4.12962819e-03 1.24022011e-02 2.58962139e-02
      -2.16522381e-01 -8.53072677e-04 6.33288994e-02 -4.27221917e-02
      8.12460855e-03 9.22458339e-03 2.52161436e-02 -4.65638600e-02
      -4.95555736e-02 5.88651514e-03 6.96231350e-02 2.97584571e-02
      3.09088174e-03 1.48130627e-02 1.02079241e-02 -1.91079751e-02
      2.39304192e-02 -2.10757204e-03 6.46515051e-03 4.45024722e-04
      -9.48621053e-03 2.98210103e-02 1.11394096e-02 2.42726151e-02
      2.56745261e-03 1.85911544e-02 -1.15012988e-01 3.03030293e-02
      -1.71517041e-02 -2.57202121e-03 2.92526046e-03 2.18131859e-02
      -2.80440450e-02 -4.13767435e-03 2.19510701e-02 1.67487189e-02
      -2.48951465e-02 -2.93291770e-02 4.83546726e-04 1.72230285e-02
      1.28424866e-02 1.56101370e-02 -7.83894025e-03 8.18254054e-03
      1.95117854e-02 -4.07845527e-02 -4.57537621e-02 -8.25207010e-02
      -7.49505833e-02 5.64358346e-02 1.21688787e-02 -1.24879666e-01
      -4.77062073e-03 9.57977027e-03 -3.24732699e-02 -4.31197286e-02
      8.35858844e-03 7.90287089e-03 6.56130910e-03 5.18398173e-02
      1.20053636e-02 5.73844388e-02 -6.01418596e-03 2.22007632e-02
      3.93284447e-02 5.24495803e-02 -1.75229255e-02 1.46994982e-02
      -2.93267742e-02 8.79287068e-03 -3.88901420e-02 1.59296971e-02
      2.89704595e-02 -4.48675416e-02 7.65838567e-03 1.04238680e-02
      7.32963579e-03 -2.17176098e-02 -1.26891762e-01 -9.54646468e-02
      2.11359859e-02 -9.62381251e-04 3.26679857e-03 1.58968940e-02
      1.30520680e-03 1.84581950e-02 -1.14166237e-01 -2.98473262e-03
      -1.72736328e-02 -9.56728403e-03 -7.31810136e-03 1.35573773e-02
      1.27664758e-02 2.57996414e-02 -2.17250865e-02 3.66006158e-02
      2.88746646e-03 1.57634858e-02 7.18815848e-02 3.34460214e-02
      -2.38388091e-01 -3.45424679e-03 7.73154385e-03 4.83411960e-02
      -4.34446521e-02 -1.47622665e-02 1.49626713e-02 2.55615287e-03
      -4.84818593e-02 1.68994833e-02 -5.47264609e-03 -1.53466789e-02
      1.83130316e-02 1.91807337e-02 -4.90513816e-02 5.25898905e-03
      2.51122806e-02 1.47740925e-02 8.49456806e-03 1.13662900e-02
      4.95910970e-03 2.43866667e-02 -1.29433163e-02 -3.45450379e-02
      -9.34244543e-02 1.95094396e-03 2.23855674e-02 -1.72129355e-03
      9.01118154e-04 1.59867201e-02 -7.76756974e-03 3.89404222e-02
      -4.02065590e-02 1.32674146e-02 3.67870145e-02 9.22400504e-02
      -1.51525727e-02 9.87221301e-03 4.38927859e-02 -4.72374639e-04
      -2.00592041e-01 -1.19724730e-02 2.36990564e-02 -2.45716404e-02
      6.05118982e-02 -1.16496114e-02 1.65402386e-02 -2.33635474e-02
      2.46991850e-02 -2.63420719e-04 -1.52932638e-02 4.74821078e-03
      -1.25958160e-01 -2.92293243e-02 3.33072953e-02 2.62910109e-02
      5.44810891e-02 -7.69332871e-02 3.30392877e-03 1.64509397e-02
      4.28360738e-02 3.61950025e-02 -6.17828313e-03 -1.06811998e-02
      2.64876522e-02 -4.84360196e-02 4.36139256e-02 3.91889215e-02
      6.66550361e-03 1.86985126e-03 3.37227993e-03 -3.14303301e-02
      3.15061733e-02 -3.86206955e-02 2.41016932e-02 4.14701086e-03
      -1.97474342e-02 9.35087577e-02 6.00649752e-02 -1.24029648e-02
      1.21853454e-02 5.12788780e-02 2.27103084e-02 3.10078394e-02
      2.34313938e-03 2.27472726e-02 3.74847800e-02 7.16212094e-02
      -8.56263004e-03 -2.00888202e-01 2.87580825e-02 3.29297855e-02
      8.86693131e-03 1.74726937e-02 3.14689800e-03 -2.65941676e-02
      3.31264548e-02 2.61362456e-02 -9.34494957e-02 -4.59373975e-03
      1.32187065e-02 1.07417457e-01 -6.05469309e-02 3.17929462e-02
      2.21656859e-02 8.45056027e-03 9.00074467e-03 3.58889671e-03
      3.68796214e-02 1.59157626e-02 1.51989609e-02 5.56863286e-02
      2.38115550e-03 -1.04668997e-02 8.35578367e-02 2.47821584e-02
      4.56360020e-02 4.13962593e-03 3.56259234e-02 -4.58108671e-02
      5.15289512e-03 2.18849313e-02 -6.34905174e-02 -6.44327030e-02
      -3.62752192e-02 -5.09922765e-02 1.90405622e-02 1.03432819e-01
      -4.47511971e-02 3.39349657e-02 5.89322718e-03 2.66514421e-02
      3.25113907e-02 -2.45587118e-02 -2.48097591e-02 -7.58006470e-03
      -3.78326885e-02 -2.03720182e-02 -1.11921556e-01 2.66918112e-02
      5.29027283e-02 7.80516770e-03 3.18374932e-02 -1.40071716e-02
      1.03986654e-02 -7.57092312e-02 2.25645769e-02 1.85877513e-02
      -2.46899277e-02 4.76379208e-02 4.36525233e-02 -1.13548758e-02
      -3.80118797e-03 1.97460577e-02 -2.01367550e-02 4.02935110e-02
      -1.43616251e-03 -4.20972146e-02 9.97094996e-03 -2.40421891e-02
      -3.45662944e-02 3.83125395e-02 5.68368621e-02 2.38996185e-03
      2.80510522e-02 2.02685427e-02 6.86423574e-03 3.11163366e-02
      4.05105650e-02 -3.98196876e-02 -8.89461301e-03 7.58401379e-02
      -9.42055136e-02 5.18717691e-02 -1.56491107e-04 -1.24090388e-02
      9.12062153e-02 -1.47923047e-03 -3.45143825e-02 1.95555831e-03
      -2.61589736e-02 1.02262218e-02 -1.82118062e-02 1.48583716e-02
      -1.44172266e-01 3.35957818e-02 1.13143055e-02 8.02356564e-03
      -2.36742347e-02 -5.87562099e-03 6.61214755e-04 -1.12297748e-04
      -3.88473198e-02 2.09154503e-04 -1.95538416e-03 -1.23020131e-02
      5.87340519e-02 2.85561867e-02 1.06358137e-02 1.99881960e-02
      8.43636412e-03 2.70597525e-02 1.28543405e-02 8.57831072e-03
      4.26297002e-02 1.61777437e-02 2.14134790e-02 1.12284450e-02
      1.41145010e-02 5.04867267e-03 -5.11072651e-02 -1.15807420e-02
      7.47866649e-03 -3.79122160e-02 1.49802901e-02 5.80603257e-04
      1.30293211e-02 1.46588488e-02 2.41479464e-02 6.37956336e-02
      -1.79890655e-02 5.55629805e-02 -5.00141606e-02 2.76942644e-02
      1.10932114e-03 3.24714817e-02 -2.63375696e-04 -4.02592421e-02
      -7.98877608e-03 -5.53846918e-02 -1.15840994e-02 1.62483379e-02
      1.47711849e-02 1.41152972e-02 -4.61631492e-02 -2.97268908e-02
      3.81915942e-02 4.02551796e-03 8.01759213e-03 1.68454498e-02
      1.36165684e-02 -2.90453527e-02 1.57549307e-02 3.73605243e-03
      -4.98920796e-04 5.55829005e-03 -1.98116358e-02 -4.56068572e-03
      1.83570944e-02 3.98030497e-05 1.29458576e-01 5.06484658e-02
      -1.53964700e-03 -1.46991096e-03 -6.05813041e-02 1.84270600e-03
      3.19296552e-04 8.32921341e-02 2.08132993e-02 2.72071101e-02
      -1.22771896e-01 1.63508728e-02 3.49927954e-02 -3.07914075e-02
      2.49550752e-02 -5.87377846e-02 2.82622464e-02 -1.06536383e-02
      2.16756668e-02 -6.14132658e-02 -1.39859831e-02 8.55380856e-03
      8.79417807e-02 2.05599796e-02 1.98296383e-02 -4.62028980e-02
      5.19619584e-02 3.38776805e-03 2.93511953e-02 2.05180924e-02
      -1.02795996e-01 9.04290657e-03 2.96170674e-02 3.80120776e-03
      1.35070633e-03 -3.80981378e-02 -1.47415623e-01 -7.46387392e-02
      1.44551741e-03 3.60164642e-02 -5.37949502e-02 -1.50738070e-02
      4.74205874e-02 2.69260332e-02 1.44632638e-03 3.45988013e-02
      -1.16102668e-02 -3.03300440e-01 1.76691543e-03 -1.39025580e-02
      1.43387634e-02 -7.33548105e-02 -6.75344244e-02 2.86616813e-02
      -4.48578820e-02 1.39426515e-02 1.62993327e-01 2.14209650e-02
      -1.26234430e-03 -9.24674347e-02 -8.60586669e-03 -4.30473872e-02
      -3.54192033e-02 1.20186890e-02 1.01126460e-02 -5.37089370e-02
      3.00476491e-03 5.16614737e-03 2.39832401e-02 1.89875588e-02</_></support_vectors>
  <decision_functions>
    <_>
      <sv_count>1</sv_count>
      <rho>-9.8471986161666947e-01</rho>
      <alpha>
        1.</alpha>
      <index>
        0</index></_></decision_functions></my_svm>
</opencv_storage>
